0.001
0.012000000000000004
-0.03699999999999999
-0.027000000000000007
-0.047
-0.027000000000000003
-0.007000000000000016
-0.03200000000000001
0.04
0.003999999999999981
0.041999999999999996
-0.05600000000000002
-0.011000000000000012
-0.08499999999999999
-0.056
-0.03999999999999999
-0.015999999999999993
0.022999999999999993
0.052
0.05699999999999999
0.04800000000000003
0.06499999999999999
0.009999999999999995
0.026999999999999996
0.067
-0.001999999999999993
0.02700000000000003
0.0010000000000000113
-0.05200000000000002
-0.024999999999999998
0.039
0.048
-0.020999999999999984
0.022999999999999986
-0.008000000000000018
-0.10999999999999997
-0.015000000000000013
-0.055999999999999994
-0.06299999999999994
-0.05299999999999999
-0.03199999999999999
-0.04099999999999999
0.04700000000000002
0.07100000000000001
0.020000000000000004
0.005999999999999998
-0.026999999999999993
-0.047
0.024
0.03400000000000003
-0.006000000000000008
0.03599999999999999
0.05799999999999998
-0.016999999999999994
-0.026999999999999993
-0.006000000000000008
-0.003999999999999997
0.072
0.053000000000000005
0.075
-0.11699999999999995
0.004999999999999993
-0.015
0.03399999999999999
0.026000000000000013
0.027000000000000003
0.034000000000000016
-0.005999999999999998
0.03799999999999999
0.04800000000000002
-0.010000000000000002
0.053999999999999965
0.08900000000000002
-0.023
-0.035
-0.029
0.02799999999999999
0.010000000000000007
-0.028999999999999998
-0.014999999999999989
0.004999999999999999
-0.011000000000000006
-0.027
-0.011
0.020999999999999994
-0.009000000000000001
0.0010000000000000044
-0.027
0.037
0.012000000000000007
0.004000000000000007
0.020000000000000007
0.008999999999999996
-0.07999999999999996
-0.029000000000000005
-0.021999999999999995
-0.057999999999999975
-0.04599999999999999
-0.04199999999999999
-0.06599999999999999
-0.023999999999999973
