0.001
-0.003999999999999995
-0.0010000000000000052
0.020999999999999998
0.034
0.024000000000000007
0.003999999999999997
-0.011
0.029999999999999992
-0.010999999999999998
-0.011000000000000006
-0.0029999999999999957
-0.017000000000000015
0.0010000000000000035
0.015000000000000001
0.006000000000000004
-0.033
0.008
-0.013000000000000005
-0.020999999999999998
-0.011000000000000003
-0.005999999999999997
-0.025
-0.042999999999999976
0.0029999999999999983
-0.019999999999999997
0.005000000000000003
0.02
0.011999999999999997
-0.022
-0.019000000000000003
0.02900000000000001
-0.049
-0.012
-0.016000000000000004
0.009999999999999995
0.013000000000000001
0.027999999999999997
0.006
0.015000000000000003
0.02
0.03199999999999999
0.035
0.001999999999999999
0.006000000000000002
0.021
0.012000000000000002
0.009999999999999992
-0.011
-0.074
-0.017000000000000005
0.0029999999999999957
0.028000000000000004
-0.005999999999999997
-0.034
0.02299999999999999
0.03900000000000001
-0.036
-0.015000000000000006
0.033
-0.024
0.019000000000000003
0.01799999999999999
-0.008
0.022
-0.003999999999999996
-0.020999999999999998
-0.027
0.045
0.046
0.05000000000000001
-0.036000000000000004
-0.012
8.673617379884035E-19
-0.010999999999999996
-0.0029999999999999983
-0.036000000000000004
0.0010000000000000035
0.024999999999999998
-0.025
-0.043
-0.011999999999999999
-0.04400000000000001
-0.015
-0.032
