0.007
0.05499999999999999
0.04099999999999996
0.04999999999999997
0.07999999999999999
0.08100000000000002
0.009999999999999985
0.032999999999999995
0.005
0.018999999999999993
0.07300000000000001
0.04800000000000002
0.07000000000000002
0.015000000000000003
0.018999999999999996
0.011000000000000005
0.024000000000000007
0.013000000000000029
0.02500000000000002
0.05600000000000004
-0.004000000000000001
0.013999999999999997
-0.04499999999999997
-0.057999999999999996
0.05500000000000002
0.03199999999999999
0.033000000000000015
-0.009999999999999988
9.999999999999861E-4
0.06900000000000002
0.002999999999999986
-0.025000000000000026
-0.04699999999999998
-0.06899999999999999
-0.06999999999999999
0.013000000000000022
-0.03000000000000002
-0.0019999999999999983
-0.03499999999999999
-0.040999999999999995
0.013000000000000018
0.031
-0.060000000000000026
-0.08499999999999996
0.00800000000000001
0.032
0.05599999999999993
-0.04100000000000002
-0.027999999999999987
-0.027000000000000014
0.06200000000000002
0.01900000000000002
-0.013999999999999993
-9.9999999999998E-4
-0.027999999999999987
0.126
-0.030999999999999975
-0.006999999999999988
-0.08000000000000004
0.017999999999999995
0.015000000000000015
-0.11000000000000003
0.009000000000000008
-0.03899999999999998
-0.012000000000000021
-0.028999999999999984
0.009000000000000008
0.05099999999999998
0.08200000000000002
-0.02400000000000002
-0.006000000000000008
-0.06099999999999998
0.05699999999999999
-0.002999999999999994
-0.07800000000000001
-0.04699999999999997
-0.05500000000000003
0.011999999999999995
-0.049
-0.050999999999999976
-0.027000000000000017
0.022
-0.01300000000000004
0.03500000000000002
-0.043000000000000003
-0.001
0.0019999999999999836
0.003000000000000002
0.029000000000000033
0.078
0.028000000000000018
-0.02500000000000001
0.044000000000000004
0.051000000000000045
-0.005000000000000004
-0.03899999999999998
-0.05899999999999998
-0.03799999999999999
-0.054
-0.005000000000000001
-0.032999999999999995
-0.030999999999999972
-0.056000000000000064
-0.025
-0.04299999999999997
-0.00999999999999998
0.007999999999999997
0.030999999999999993
0.0030000000000000053
0.056
-0.015999999999999976
-0.023000000000000013
0.038
0.005000000000000005
0.07100000000000002
-0.02
-0.02100000000000001
0.066
-0.05399999999999998
-0.007000000000000004
-0.03599999999999999
