0.002
0.007
-0.011000000000000001
-0.003000000000000001
-0.004000000000000001
0.004
-0.004
0.001
-0.014
-0.002
-0.014
0.009000000000000003
-0.008
0.020000000000000007
0.001999999999999999
0.003999999999999999
0.003
0.007000000000000001
0.012
0.004
0.013000000000000001
0.012
0.005
0.01
0.006
0.004999999999999999
0.002
-0.015000000000000003
-0.014000000000000004
0.002
0.001
0.013
0.006000000000000002
-0.006
0.006
-0.001
-0.008
0.001
-0.011000000000000003
-0.013000000000000001
0.002999999999999999
-0.009000000000000001
0.005999999999999998
0.009000000000000001
0.004
0.012
-0.003
-0.017
-0.02400000000000001
-0.012000000000000004
-0.018000000000000002
-0.019999999999999997
-0.008
-0.008
-0.005000000000000001
0.003000000000000001
0.019000000000000003
0.016
0.01
-0.003000000000000002
-0.008999999999999998
0.004
0.001
-0.008
0.013000000000000001
-0.004
0.013000000000000005
0.001
-0.001
-0.006
-0.012000000000000002
-0.012000000000000004
-0.008
0.0
0.002
0.012000000000000002
0.009
-0.0010000000000000009
0.0
-0.004
-0.008
-8.673617379884035E-19
-0.024
-0.022
-0.009999999999999998
-0.015000000000000001
-0.025999999999999995
-0.009000000000000001
-0.014999999999999998
-0.020999999999999998
-0.011
-0.005
-0.002000000000000001
-0.007999999999999997
-0.006
-8.673617379884035E-19
-0.019999999999999997
-0.01
0.007000000000000001
-0.002
-0.004999999999999999
0.004
-0.008
-0.005
-0.007000000000000001
0.0
-0.009000000000000001
0.008000000000000002
0.020999999999999994
-0.007999999999999997
-0.015000000000000001
0.001999999999999999
0.003
0.013000000000000005
-0.004
-0.024999999999999994
-0.021000000000000005
-0.018999999999999996
-0.017
-0.023
-0.02
0.009000000000000001
-0.011000000000000001
0.0
0.013000000000000001
0.008
0.016
0.008
-0.007
0.031000000000000003
-0.018
-0.0019999999999999983
0.019000000000000003
0.013000000000000001
0.007000000000000002
0.002
0.005
0.014
0.006
0.006999999999999997
-0.006000000000000001
0.013
0.003000000000000001
0.0
0.004000000000000001
0.004
0.012
0.02099999999999999
0.014
0.005
-0.0039999999999999975
-0.008
-8.673617379884035E-19
-0.024
0.010000000000000002
-0.003
-0.004
-0.006
-0.023000000000000003
-0.021000000000000005
0.010000000000000002
0.01
0.014999999999999998
0.010000000000000004
0.009000000000000005
-0.008
0.012000000000000002
0.003
0.013000000000000001
0.003
0.001
-0.011999999999999999
-0.007
0.005
0.017
0.012000000000000002
0.018000000000000002
0.019
-0.009000000000000001
-0.017
-0.026000000000000006
0.010000000000000002
0.002
-0.007000000000000002
-0.016
0.003
-0.002
0.02399999999999999
0.007
-0.010000000000000002
-0.006
-0.017
-0.005999999999999999
-0.017
-0.006
0.012999999999999998
0.005
0.014000000000000002
0.005
-0.006
-0.009999999999999997
-0.005
0.001
-0.007
0.0
-0.007000000000000001
0.004000000000000001
0.0
-0.002999999999999999
-0.004
0.026000000000000002
-0.005
-0.009000000000000005
-0.001
0.007
0.002
0.012000000000000002
0.017
0.012
0.01
-0.013
0.005
-0.004
-0.003
-0.031999999999999994
-0.009000000000000001
0.016999999999999994
0.020000000000000004
0.012
0.012999999999999998
0.008999999999999998
0.0
-0.008
0.004
-0.001
-0.008
-0.008
-0.005
-0.009
-0.017
-0.005
-0.018
0.0
-0.009000000000000001
-0.003
0.006000000000000001
-0.014999999999999996
0.010000000000000002
0.018999999999999996
-0.002
-0.003
0.002
-0.006
-0.009999999999999998
-0.003
0.003
0.004
-0.017000000000000005
-0.017
-0.009000000000000001
-0.0019999999999999983
0.015000000000000001
0.007000000000000002
0.012
-0.006
-0.004
0.002
0.009000000000000001
0.005
0.009000000000000001
-0.003
0.0
0.0
-0.003
0.011
0.002
-0.002
-0.003
0.013
0.012
0.013000000000000001
0.006
0.011
0.009000000000000001
0.006
0.001
-0.008000000000000002
-0.004
0.004
-0.008
0.005
0.018000000000000002
-0.003
0.007
-0.009000000000000001
-0.006
-0.005
-0.002
-0.007
0.006
0.002
