0.0
0.03499999999999999
0.048000000000000015
-0.05399999999999999
-0.030999999999999986
0.047
0.07200000000000001
0.081
0.043
-9.99999999999987E-4
0.04499999999999999
0.07099999999999998
-0.012
0.05500000000000003
-0.006999999999999985
0.036
-0.058
-0.05000000000000001
0.0019999999999999775
-0.10399999999999998
-0.054000000000000006
-0.011000000000000006
0.07299999999999998
-0.06300000000000001
-0.031
0.03500000000000001
-0.039000000000000014
0.02600000000000002
0.04399999999999999
-0.02699999999999998
-0.13899999999999996
-0.011000000000000013
0.08800000000000002
-9.999999999999974E-4
0.12799999999999995
0.05200000000000001
0.01900000000000001
0.02500000000000001
0.03200000000000001
0.056000000000000036
-0.031000000000000007
-0.015000000000000005
0.008999999999999987
-0.056999999999999995
-0.06799999999999998
-0.07300000000000002
0.013000000000000025
-0.013999999999999995
0.032999999999999995
-0.05199999999999999
0.013000000000000005
-0.16600000000000004
-0.02200000000000001
0.052000000000000025
0.019000000000000003
0.06299999999999997
0.061
-0.032000000000000015
-0.08899999999999997
0.005
-0.052000000000000005
0.018
0.07500000000000005
-0.03599999999999999
-0.07
-0.06999999999999998
-0.013000000000000012
-0.014999999999999989
-0.048000000000000015
0.023999999999999994
0.031
