0.002
-0.036
-0.044
-0.016999999999999994
-0.032000000000000015
-0.03
-0.022000000000000006
-0.012000000000000007
0.048000000000000015
-0.012000000000000004
0.010000000000000002
-0.004
0.022999999999999993
0.002999999999999999
-0.001999999999999999
-0.006000000000000002
-0.010999999999999998
0.003
0.003
0.006000000000000001
-0.004
-0.006999999999999996
-0.026000000000000002
0.015999999999999993
-0.012999999999999998
-0.037000000000000005
-0.024
-0.017
0.023000000000000007
-0.020000000000000004
0.0040000000000000036
-0.039999999999999994
-0.038000000000000006
-0.027
-0.03299999999999999
-0.022000000000000006
-0.011000000000000003
-0.018999999999999993
-0.018000000000000002
0.008
-0.026000000000000006
0.040999999999999995
0.008999999999999998
0.007999999999999995
-0.0010000000000000009
-0.02
2.6020852139652106E-18
0.019
0.02600000000000001
-0.006999999999999998
0.027000000000000003
0.003
-0.032000000000000015
0.018000000000000002
-0.016
0.026000000000000002
-0.043999999999999984
-0.057
-0.04599999999999999
-0.029
-0.013999999999999992
-0.010000000000000004
0.015999999999999997
0.014000000000000002
0.03599999999999999
0.016999999999999998
-9.999999999999992E-4
0.033999999999999996
0.051000000000000004
0.038000000000000006
0.034
0.014000000000000002
0.02
-0.014000000000000002
-0.02500000000000001
0.016000000000000018
0.020999999999999994
0.023000000000000013
0.02600000000000001
-0.009000000000000003
-0.025
-0.02500000000000001
-0.014000000000000002
-0.023000000000000007
-0.013000000000000005
0.017999999999999995
-0.045
-0.044000000000000004
-0.04700000000000001
-0.0010000000000000009
0.06100000000000001
-0.022000000000000006
0.016999999999999994
0.009000000000000001
0.025999999999999995
0.0039999999999999975
-0.024999999999999998
-0.020999999999999998
0.020000000000000004
0.018000000000000016
0.041999999999999975
0.03399999999999999
0.03399999999999999
0.041999999999999996
0.03999999999999999
0.049000000000000016
0.015000000000000003
0.006
0.002
0.0020000000000000035
0.027999999999999997
0.03400000000000001
-0.002
-0.038000000000000006
-0.024000000000000007
-0.0010000000000000044
-0.001
-0.002
-0.006999999999999998
0.008
0.038000000000000006
0.011
0.022000000000000002
0.017000000000000008
-0.005000000000000001
-0.012
-0.007999999999999993
-0.026999999999999996
0.007
-0.012
-0.006999999999999998
-0.025000000000000005
-0.015000000000000003
-0.05500000000000001
-0.028000000000000004
-0.044
-0.023999999999999997
-0.028000000000000004
0.022999999999999993
0.009000000000000001
0.032999999999999995
