0.007
0.009999999999999993
-0.054000000000000006
0.041999999999999996
-0.10699999999999996
0.011000000000000003
0.04699999999999999
0.11400000000000005
0.06200000000000001
-0.10099999999999994
0.012999999999999998
0.05800000000000003
0.0030000000000000183
0.052000000000000025
-0.019000000000000017
0.07
-0.047999999999999994
0.062
0.03700000000000002
-0.053999999999999965
-0.05399999999999999
-0.023999999999999987
0.06199999999999999
-0.05000000000000003
-0.10499999999999995
-0.06200000000000002
-0.0040000000000000036
-0.05200000000000001
0.026999999999999993
0.06199999999999997
0.009000000000000005
0.044999999999999984
0.015999999999999993
0.03300000000000003
-0.05200000000000003
-0.06699999999999999
-0.08999999999999996
0.043000000000000003
0.11300000000000006
-0.012999999999999998
0.018000000000000002
0.044000000000000025
0.04599999999999997
0.062000000000000006
-0.038
-0.003000000000000008
0.06500000000000003
0.017000000000000005
-0.06299999999999997
-0.03600000000000002
-0.004000000000000004
0.010000000000000031
-0.07999999999999999
-0.08299999999999999
0.028999999999999995
-0.02699999999999999
-0.015999999999999986
-0.049999999999999996
-0.02000000000000001
-0.09099999999999993
0.068
-0.016000000000000004
0.04100000000000002
0.02700000000000001
-0.029000000000000026
-0.063
0.15100000000000008
0.10100000000000002
0.015000000000000006
-0.11499999999999991
-0.07799999999999999
-0.03699999999999998
-0.044000000000000004
-0.011000000000000003
0.04099999999999998
-0.063
-0.012000000000000007
0.028000000000000004
-0.013000000000000006
0.01900000000000001
-0.063
0.068
-9.999999999999861E-4
0.040000000000000015
-0.001000000000000014
