0.003
-0.021
-0.005999999999999999
0.004000000000000003
-0.0020000000000000018
-0.037
-0.011999999999999993
-0.023000000000000007
-0.004
0.005
0.016
0.018999999999999996
0.006000000000000004
-8.673617379884035E-19
0.007
0.017
0.013000000000000001
-0.012
-0.017
-0.017000000000000005
-0.0010000000000000009
0.022000000000000006
-0.027000000000000007
0.013999999999999999
0.014000000000000005
-0.011999999999999997
-0.002999999999999999
0.0
0.013
0.003
-0.012
0.013999999999999999
0.005000000000000002
0.020999999999999998
-0.023
-0.007999999999999998
0.001
-0.001999999999999999
0.044
-0.013000000000000003
-0.015000000000000003
0.02
0.010000000000000005
0.013000000000000005
-0.016
0.002999999999999999
-0.015999999999999993
-0.0029999999999999983
0.008
0.023000000000000003
0.005
-0.028
0.037000000000000005
0.0050000000000000044
0.009999999999999998
-0.024000000000000004
-0.03200000000000001
-0.009000000000000005
0.001999999999999999
0.013
-0.003000000000000001
-0.004
9.999999999999992E-4
-0.012
-0.011999999999999997
0.027999999999999997
0.001999999999999999
-0.004
0.004
0.008
0.013
0.009000000000000001
-0.034999999999999996
-0.04200000000000001
-0.055999999999999994
-0.03599999999999999
0.018999999999999996
0.017
0.009
-0.005000000000000001
-0.0010000000000000009
0.018000000000000006
0.006
0.007999999999999997
0.014999999999999993
-0.006
-0.029
0.009999999999999995
0.007
-0.024
-0.013999999999999999
-0.012999999999999998
0.022000000000000002
0.051
0.0019999999999999957
0.016
-0.013000000000000001
0.027999999999999994
0.01
-0.02500000000000001
0.019000000000000003
0.03799999999999999
0.029999999999999985
0.011
-0.002
0.007
-0.027999999999999997
0.003
0.014999999999999998
-0.003000000000000002
0.005
0.018999999999999996
0.003
0.035
0.025999999999999995
-0.009000000000000005
-0.005000000000000001
0.047000000000000014
0.005999999999999999
0.006
-0.02500000000000001
-0.042
-0.011999999999999997
0.008000000000000002
0.019000000000000003
-0.003999999999999999
0.006999999999999998
0.028999999999999988
0.014000000000000002
0.034
-0.002
-0.007999999999999997
-0.006000000000000001
-0.016
-0.011999999999999993
0.033
0.022
-0.005000000000000001
-0.012
0.004000000000000002
-0.021000000000000005
-0.008000000000000005
0.003999999999999998
-0.009999999999999995
0.02200000000000001
-0.024
-0.007
-0.019999999999999997
-0.011
-0.022
0.004
-0.023000000000000003
-0.008000000000000004
0.03
0.010000000000000002
0.01
-0.02
0.011
0.005
-0.025000000000000005
-9.999999999999983E-4
-0.024000000000000004
-0.027000000000000003
-0.021
-0.015000000000000003
-1.734723475976807E-18
0.002
0.022999999999999993
0.009000000000000001
0.027
0.025
0.012
0.027
0.024000000000000007
0.006
0.015000000000000003
-0.008000000000000004
-0.018000000000000002
-0.007000000000000001
0.012
-0.009999999999999998
-0.011000000000000001
0.013999999999999999
0.03899999999999999
-0.029
-0.0010000000000000018
0.021000000000000005
-0.007
0.021999999999999992
-0.011000000000000003
-0.022
0.013999999999999995
0.0020000000000000018
-0.013
-0.001
-0.009000000000000001
-0.004999999999999998
-0.002
-0.020000000000000004
-0.014000000000000002
-0.001
-0.009000000000000001
-0.003
-0.053000000000000005
-0.02
-0.021999999999999995
-0.028
-0.03699999999999999
-0.015000000000000006
-0.017
-0.016000000000000004
