0.005
0.008
-0.008
0.002
-0.002
0.007
0.008
-0.005
-0.009000000000000001
-0.007000000000000001
0.003
-0.001
-0.011999999999999999
-0.012000000000000002
-0.022
-0.001
0.004
0.013000000000000005
-0.007000000000000001
-0.009000000000000001
0.006
0.007
0.004
-0.003
0.003
0.0
-0.004
-0.001
-0.01
0.0
0.0
0.0
-0.010000000000000002
-0.014000000000000005
-0.008999999999999996
-0.001
-0.011000000000000003
-0.006000000000000001
-0.002
-0.007
-0.019000000000000003
-0.009000000000000001
0.004
0.016
0.015999999999999997
0.007
0.008
0.005
0.008999999999999998
0.011000000000000003
0.006
-0.025999999999999995
-0.010000000000000002
-0.009000000000000001
0.006
-0.003
0.008
0.006
0.006
-0.003
-0.001
-0.007
0.003
-0.007
-0.004
0.0
-0.001
0.010000000000000002
0.001
-0.004
-0.015
0.010000000000000007
-0.006
0.0
-0.002999999999999999
-0.002
0.003000000000000001
0.007
0.0010000000000000026
0.005
0.002
0.008000000000000004
0.014000000000000002
0.013000000000000001
-0.005
-0.006000000000000001
-0.001
0.0070000000000000045
0.002
0.006
0.005
-0.007
-0.016000000000000004
-0.002
-0.002
0.003
-0.005
0.0010000000000000035
-0.003000000000000001
-0.022000000000000006
0.0
0.003
0.008
-0.011
-0.008000000000000002
0.005999999999999993
-0.007
0.004
0.010000000000000002
-3.469446951953614E-18
0.006
0.002
0.004000000000000004
-0.009999999999999998
-0.009000000000000001
-0.01
-0.011000000000000003
-0.020000000000000004
-0.0029999999999999983
0.008
0.012000000000000002
-0.004
-0.006
-0.001
0.001
-0.005
-0.017
-0.001
-0.013000000000000005
-0.011999999999999999
-0.013000000000000001
0.001999999999999999
0.003
0.009000000000000001
-9.999999999999992E-4
0.002
0.009
-9.999999999999992E-4
0.006
-0.023000000000000007
-0.005
-0.010999999999999998
0.0
0.005
-0.010000000000000002
0.0
0.005000000000000002
0.006000000000000007
-0.001
-0.001
0.004999999999999997
-0.009000000000000001
-0.011000000000000003
0.001
-0.007
0.0
0.001
-0.004
-0.005
-0.009000000000000001
-0.005
0.0
-0.007000000000000001
-0.005
0.009999999999999997
0.003
-0.0030000000000000035
-0.005
-0.0069999999999999975
0.017
-0.008
-0.007000000000000002
-0.005999999999999995
-0.0010000000000000009
-0.013999999999999995
-0.003
0.003
-0.0019999999999999983
0.02500000000000001
0.001
0.007000000000000004
0.015000000000000008
-0.006
0.0
0.011
-0.005
-0.002
0.003
-0.004
-0.014000000000000005
0.0029999999999999966
0.008
-0.007
0.011
0.011
0.012
-0.018000000000000002
-0.008
-0.009000000000000005
0.004
0.005
-0.013000000000000001
0.006
0.010000000000000002
0.002
0.011
-0.012
-0.024
-0.011
-0.002
-0.009999999999999998
0.0
0.012000000000000004
0.008
0.004000000000000001
0.001
-0.009000000000000001
0.005
-0.001
0.003
-0.001
-0.005999999999999998
-0.006000000000000004
0.0
-3.469446951953614E-18
0.017
-0.015
-0.018000000000000002
-0.005
-0.005
0.016
0.005
-0.001
-0.0010000000000000009
0.001
-0.004
0.010000000000000002
0.013000000000000005
0.007999999999999998
-0.003
-0.002
-0.001
0.0070000000000000045
0.002000000000000001
0.004
-0.002
0.009000000000000005
-9.999999999999992E-4
0.001
-0.008
-0.002
-0.001
0.0029999999999999966
0.006
0.027000000000000003
0.018000000000000002
0.009000000000000001
0.0
-0.006999999999999997
-0.019
-0.004
-0.003
-0.014000000000000005
-0.005000000000000001
-1.734723475976807E-18
0.007
0.007
0.002
0.004
-0.014000000000000004
-0.012
-0.008
-0.014
-0.009999999999999995
0.01200000000000001
0.011000000000000003
0.002
0.007999999999999997
0.006000000000000001
0.002
-0.006
0.002
-0.012999999999999996
0.001999999999999999
0.010000000000000004
0.016
0.0
-0.006
-0.003
-0.017000000000000008
-0.015000000000000001
-0.009000000000000001
-0.019000000000000003
-0.006
0.006
-0.009000000000000003
-0.001
-0.007000000000000001
-0.002
1.734723475976807E-18
-0.011999999999999999
0.001
0.001
-0.004
-0.011000000000000001
0.005
0.031000000000000014
-0.003
0.011
0.015000000000000001
-0.005
-0.001
-0.008000000000000004
-0.011000000000000003
0.009000000000000001
-0.005000000000000005
0.004
0.007
-0.002
-0.008000000000000004
0.005000000000000003
-0.017
-0.014
-0.012999999999999998
-0.011
-0.02100000000000001
-0.017
-0.015000000000000006
-0.011
-0.015000000000000003
-0.020000000000000004
-0.008999999999999998
-0.001
-0.010999999999999996
-0.01499999999999999
-0.016
9.999999999999983E-4
0.0059999999999999975
-9.999999999999983E-4
0.001
-0.008
-0.002
-0.001
-0.001
0.005
0.011000000000000003
-0.013000000000000005
0.004999999999999999
-0.008000000000000004
0.003
0.004
-0.003
-0.02600000000000001
-0.014
-0.014000000000000002
-0.011999999999999993
-0.03600000000000001
-0.020000000000000004
-0.022000000000000006
-0.016
-0.016
-0.003
-0.013000000000000003
0.010000000000000009
-0.010999999999999998
-0.01999999999999999
-0.013999999999999999
0.008
0.017
0.010000000000000004
1.734723475976807E-18
-0.003
-0.004
-0.005
-0.010000000000000002
-0.001
0.009000000000000001
0.007
0.0010000000000000009
-0.003000000000000002
0.009
0.028000000000000004
0.022
-0.004
-0.012999999999999998
-0.004
-0.020000000000000004
-0.018000000000000002
-0.02700000000000001
-0.03300000000000002
-0.007000000000000001
0.009999999999999998
-0.012000000000000002
0.012
0.03100000000000002
0.020000000000000004
0.008
-0.006
0.013000000000000005
0.005
-0.010000000000000002
-0.006
-0.005
0.0
-0.010000000000000002
0.002
-0.011
8.673617379884035E-19
0.009000000000000001
0.012
0.003
0.009000000000000003
0.023000000000000007
0.005
0.016
0.002
-0.012000000000000002
-0.001
-0.024
-0.007
-0.008000000000000002
0.0029999999999999966
0.001
-0.006000000000000001
0.002
-0.007
0.02600000000000001
0.004
-0.011000000000000001
-0.002
0.005
0.006
0.008999999999999998
0.011
-0.003
-0.002
-0.009000000000000001
-0.011
-0.015
-0.0029999999999999975
-0.004
-0.013000000000000005
0.003
0.006
-0.008
0.015
0.015
0.019000000000000003
0.023000000000000007
0.0030000000000000044
-0.011000000000000001
-0.002
0.023
0.0069999999999999975
0.009000000000000005
0.022000000000000006
0.017
-0.009000000000000001
0.005
0.007
0.004
-0.007
-0.003
-0.006
-0.002
0.002
-0.004
-0.011000000000000001
-0.015000000000000005
-0.0029999999999999966
-0.014999999999999998
0.0010000000000000035
-0.022000000000000013
0.002
0.003
-0.011000000000000001
-0.006000000000000004
0.012
0.013000000000000003
0.0040000000000000036
-0.010000000000000002
0.009000000000000005
0.011000000000000001
0.019000000000000003
0.014
0.02300000000000001
0.014000000000000002
0.007
0.004
0.015999999999999997
-9.999999999999983E-4
0.018000000000000002
0.003999999999999999
0.003
0.005000000000000001
0.012999999999999994
-0.003
-0.002
0.0
-0.002
-0.012000000000000005
-0.009000000000000001
0.018000000000000002
-0.006
0.01900000000000001
0.025
-0.001999999999999993
0.015
0.030000000000000006
0.007000000000000001
-0.02
-0.01899999999999999
-0.004
0.005
0.006000000000000004
0.0
-0.003
0.0
0.0
0.015
0.009000000000000001
0.004000000000000002
0.002
0.006
0.003
-0.006
-0.004
-0.003
-0.007
0.002
0.0020000000000000035
0.002
0.014000000000000002
0.007
0.002
0.023000000000000007
0.001
-0.009000000000000001
-0.017
-0.016000000000000007
-0.010000000000000005
-0.008
-0.004
-0.005999999999999999
0.016
0.002
0.0
-0.006000000000000001
-0.017
0.002
0.010000000000000002
0.028000000000000018
0.007999999999999998
-0.001
0.003
0.008
-0.007
0.004
-0.004
-0.004
-0.002
-0.012
0.005
0.002
-0.006
0.003
-0.006000000000000002
0.019000000000000003
-0.014
-0.024000000000000014
-0.024000000000000007
-0.022000000000000002
-8.673617379884035E-19
-0.01999999999999999
0.001
0.010000000000000002
-0.005
0.009000000000000001
-0.023000000000000003
-0.045000000000000026
0.008
0.003
0.009999999999999995
0.016
0.002
0.005999999999999997
0.010000000000000002
-0.008
-0.017
-0.009000000000000001
-0.002
-0.002
-0.018000000000000006
0.0
-0.008
0.022000000000000006
0.011000000000000003
0.017
0.009000000000000001
0.007000000000000001
-0.034000000000000016
-0.027000000000000017
-0.014000000000000002
-0.017000000000000008
-0.005000000000000001
0.0010000000000000009
0.0010000000000000026
0.013000000000000003
-0.006
-0.024000000000000007
-0.020000000000000007
0.007
0.011000000000000006
0.005
0.007
-0.002
0.0050000000000000044
0.012000000000000002
0.007999999999999997
-0.003
0.001
-0.004
0.016
-0.011
-0.00499999999999999
-0.002
0.005
0.016
0.003000000000000001
0.006
-0.005
-0.014
-0.019000000000000003
-0.009000000000000001
-0.001
-0.010000000000000005
0.002
0.01800000000000001
-0.013000000000000001
-0.006000000000000001
-0.009000000000000001
-0.014000000000000009
0.004
0.005000000000000004
0.024000000000000007
0.008000000000000005
-0.013000000000000001
0.012999999999999998
-0.003
0.014000000000000002
0.003
-0.007
-0.007
-0.001
-0.011000000000000001
-0.006
-0.002
-0.013000000000000003
0.005
0.02000000000000001
-0.001
0.022000000000000006
-0.008000000000000002
-0.006
-0.016000000000000007
0.003
0.006000000000000002
-0.005000000000000003
0.009000000000000001
-0.021999999999999992
-0.008
-0.007000000000000001
-0.012000000000000004
0.004
0.008
0.010000000000000002
-0.003
-0.004999999999999996
0.009000000000000001
-0.004000000000000001
0.003
-0.006
0.0
-0.007
-0.010000000000000002
-0.005
-0.012999999999999998
-0.017999999999999995
-0.004
-0.005
0.017
0.023000000000000007
0.01200000000000001
-0.011
-0.013999999999999999
-0.004000000000000001
0.003
-0.002
-0.001
0.011000000000000001
-0.009000000000000001
0.004999999999999999
-0.001
-0.016
-0.010999999999999996
0.013
0.01800000000000001
-0.011000000000000001
0.017
0.0
-0.007000000000000001
0.005
-0.007000000000000001
-0.002
-0.006
0.002
-0.001
-0.013
-0.018999999999999996
-0.006000000000000001
0.008000000000000002
-0.012
0.009999999999999997
0.01
-0.003
0.004
-0.024999999999999994
-0.002
0.006000000000000004
-0.006
0.006
0.008999999999999998
-0.010000000000000002
0.012
-0.015000000000000005
0.022000000000000006
0.006000000000000004
0.0
-0.0029999999999999983
0.015000000000000001
-0.005
-0.001
0.001
-0.013999999999999999
0.004
-0.002
-0.002
0.004
0.009000000000000001
-0.008000000000000004
-0.006
-0.005
-0.007
0.0010000000000000018
0.006000000000000001
-0.002
0.006
-0.006000000000000001
-0.016999999999999994
0.002
-0.007000000000000001
-0.018000000000000002
-4.336808689942018E-18
-0.009000000000000001
9.999999999999992E-4
0.017
0.009999999999999998
0.014000000000000002
-0.011999999999999997
0.004
0.003
-0.012
-0.016
-0.009000000000000001
-0.011000000000000003
0.0
-0.003
-0.006
-0.015
0.003
-0.007
0.002999999999999999
-0.007
-0.008000000000000002
0.011999999999999995
0.017
0.014000000000000005
0.009999999999999997
-0.024000000000000004
-0.011000000000000005
-0.008
-0.003
-0.001
-0.013
-8.673617379884035E-19
-0.007999999999999997
-0.0029999999999999975
0.01800000000000001
0.001
0.005
-0.009999999999999998
0.006000000000000001
-0.002
-0.006
-0.005
-0.020000000000000004
-0.003
-0.003
-0.001
-0.0019999999999999983
0.004
-0.016
-0.011
0.006000000000000001
-0.010000000000000002
0.009999999999999998
0.018000000000000002
0.02800000000000001
0.015000000000000001
0.006000000000000004
-0.016
-0.004
0.011999999999999997
-0.012
-0.002
-0.008
0.006
0.006
0.009999999999999998
0.009000000000000001
-0.001
-0.020000000000000004
-0.002
-0.003
-0.007
-0.007
-0.009999999999999998
-0.002
0.005
-0.010000000000000002
-0.010000000000000002
0.012
0.003999999999999999
0.007999999999999998
0.010000000000000002
0.006000000000000001
0.006
0.011999999999999997
-0.001999999999999999
0.02000000000000001
-0.014999999999999996
0.002
0.005000000000000004
0.010000000000000005
0.001
0.004
0.002
0.010000000000000002
0.002
0.015
0.011000000000000001
-0.002
0.007
0.0020000000000000035
-0.015999999999999993
-0.0010000000000000018
0.005
-0.008
0.001
-0.007
0.011000000000000003
-0.009999999999999998
-0.009999999999999998
-0.015
-0.007
0.003
-0.005
-0.008000000000000004
0.0
0.006
0.005
0.001
0.0020000000000000026
0.013999999999999999
0.022999999999999986
0.008
0.021999999999999995
-0.001
0.013000000000000003
0.001
0.002
-0.014999999999999989
-8.673617379884035E-19
-0.010000000000000002
-0.015000000000000003
-0.011000000000000003
-0.006
0.006
-0.007
-0.007
-0.001
0.004
-0.001
0.004
0.002
-0.005000000000000002
0.003000000000000001
-0.002
-0.005000000000000001
-8.673617379884035E-19
0.015000000000000008
0.006
-0.012999999999999989
-0.006000000000000003
-0.004000000000000002
-0.004
-0.009000000000000001
0.007
-0.017000000000000005
-0.007000000000000002
-0.013999999999999999
0.011999999999999999
0.005
0.003
-0.006
-0.012000000000000002
-0.007000000000000005
-0.007
0.004
0.005000000000000004
0.007
0.0
0.015000000000000001
0.004
0.011
0.010000000000000002
-0.0010000000000000009
0.019
0.003
-0.005000000000000001
0.013999999999999999
0.0010000000000000009
-0.010000000000000002
-0.012
-0.006
-0.010000000000000002
0.014
0.01
-0.005
-0.01800000000000001
-0.014000000000000002
-0.003
-0.007000000000000005
0.006
-0.007000000000000002
0.007999999999999993
0.001
0.010000000000000002
-0.0049999999999999975
0.009000000000000001
0.0
0.005
0.0
0.008
0.024
-9.999999999999992E-4
0.003
0.002000000000000001
-0.004
0.001
0.0039999999999999975
0.011000000000000001
0.011000000000000001
0.005
-0.003
-0.005
-0.011000000000000003
-0.009000000000000001
-0.03400000000000001
-0.007000000000000002
-0.004000000000000005
0.001
-0.010999999999999998
0.004
0.006
-0.018000000000000002
-0.011
0.013999999999999999
-0.009000000000000001
-0.009999999999999997
0.001
0.006000000000000001
0.0
0.0
0.009000000000000003
0.01
-0.008
0.002
0.001
-0.003
-0.002999999999999999
0.011
0.02400000000000002
0.016
-0.016
-0.008
-0.004
-0.010000000000000002
-0.018000000000000002
-0.013
0.009000000000000001
-0.023
-0.004
0.001
-0.002
0.007
-0.006
-0.017
-0.016999999999999998
-0.006
-0.006
0.004
-0.004999999999999997
-0.001
0.0
-0.008
-0.008
-0.004
-0.011
-0.004
-0.002
-0.005
-0.008
0.003
0.015000000000000005
-0.008000000000000004
-0.015000000000000001
-0.007
-0.010000000000000002
-0.017
-0.006
-0.007999999999999997
-0.012
-0.006
0.007
0.005
-0.005
-0.01900000000000001
-0.004
0.001
0.001
