0.015000000000000006
0.1459999999999999
0.03299999999999998
0.06700000000000003
-0.03500000000000002
-0.16900000000000004
0.14500000000000027
0.13199999999999987
-0.11199999999999978
-0.03500000000000002
-0.095
-0.05799999999999998
0.051000000000000024
0.0870000000000003
0.09800000000000003
0.08400000000000009
0.06399999999999992
-0.01800000000000007
0.11900000000000015
-0.019000000000000045
0.12899999999999998
-0.125
0.024999999999999967
-0.05899999999999998
0.10500000000000001
0.034
-0.02600000000000022
-0.30200000000000016
-0.06400000000000003
-0.01100000000000002
0.12299999999999986
-0.14700000000000008
-0.11399999999999993
0.005999999999999946
0.248
0.09100000000000003
-0.10499999999999991
-0.006000000000000041
0.13299999999999995
-0.24299999999999988
-0.09400000000000013
0.12
-0.32299999999999984
-0.17099999999999999
0.17899999999999994
0.12200000000000011
0.23400000000000004
0.13500000000000006
-0.10999999999999993
-0.023000000000000104
-0.206
0.07600000000000001
-0.20900000000000002
-0.028000000000000004
-0.03400000000000009
0.057000000000000016
-0.17399999999999968
0.18700000000000028
0.06399999999999995
-0.03900000000000004
-0.01400000000000002
