-0.002
-0.024000000000000004
-0.02600000000000002
0.04100000000000002
0.0990000000000001
0.027000000000000027
0.022000000000000002
0.04600000000000001
-0.039999999999999994
0.02300000000000001
0.07499999999999998
-0.030000000000000006
-0.046
-0.081
0.09499999999999995
-0.11600000000000002
0.011000000000000015
0.02300000000000001
-0.1519999999999999
-0.045
-0.05000000000000003
0.09499999999999997
0.13899999999999998
0.034
-0.08899999999999997
-0.15199999999999986
0.11299999999999993
0.051999999999999984
-0.045000000000000005
-0.028000000000000025
-1.5612511283791264E-17
0.11499999999999995
0.07000000000000002
0.07700000000000001
-0.08500000000000006
0.08200000000000002
-0.08700000000000005
0.013999999999999995
-0.02
-0.029000000000000015
0.025999999999999975
-0.11999999999999997
-0.15000000000000002
-0.0010000000000000087
0.008999999999999994
0.15599999999999997
0.10399999999999995
0.03299999999999996
-0.06799999999999998
-0.010000000000000016
-0.037999999999999985
0.05000000000000002
-0.1129999999999999
0.015000000000000003
0.09300000000000003
-0.11499999999999998
0.09800000000000003
0.04399999999999998
0.04600000000000003
-0.05099999999999999
-0.14700000000000002
-0.05099999999999999
0.04099999999999997
-0.04400000000000002
-0.007000000000000023
0.069
0.035
-0.06099999999999998
0.018000000000000002
-0.11899999999999997
0.02099999999999999
