0.01900000000000001
-0.07300000000000001
0.03100000000000004
-0.06500000000000011
-0.034000000000000016
-0.06499999999999992
-0.06399999999999997
0.055999999999999855
0.06699999999999998
-0.09399999999999994
0.1440000000000001
-0.019000000000000017
0.01900000000000001
-0.14500000000000007
-0.028000000000000025
0.11100000000000002
-0.023000000000000027
0.11900000000000008
0.03500000000000004
0.04399999999999996
-0.08200000000000005
0.024000000000000004
0.002999999999999947
-0.06199999999999997
0.029000000000000015
-0.05099999999999999
-0.040999999999999995
-0.05399999999999998
-0.12500000000000003
-0.004999999999999995
0.04099999999999998
-0.11199999999999995
0.06399999999999992
0.05099999999999995
0.017000000000000064
-0.09399999999999997
0.10000000000000014
0.04600000000000002
0.02500000000000007
0.12100000000000005
-0.10599999999999998
-0.13100000000000006
0.10999999999999993
-0.03000000000000008
0.020999999999999956
-0.20600000000000007
0.030999999999999937
0.04500000000000011
-0.027999999999999976
0.034000000000000065
-0.17500000000000004
0.13900000000000007
0.09099999999999991
-2.0816681711721685E-17
0.1720000000000001
0.013000000000000036
-0.12600000000000006
0.0010000000000000044
-0.2090000000000001
-0.21600000000000003
-0.066
-0.021000000000000026
0.026000000000000013
-0.11599999999999999
0.07100000000000006
0.15300000000000014
-0.014999999999999972
-0.03899999999999993
0.0010000000000000486
0.12300000000000008
0.07000000000000006
0.066
-0.18200000000000005
0.06500000000000017
0.10400000000000004
0.07700000000000001
0.19900000000000015
0.07900000000000007
0.12600000000000006
-0.028999999999999984
0.0019999999999999922
-0.119
0.030999999999999892
0.00400000000000004
9.999999999999887E-4
-0.058000000000000045
0.025999999999999877
-0.036000000000000025
-0.013000000000000001
0.10600000000000018
-0.02299999999999994
-0.07099999999999995
-0.07199999999999995
-0.020999999999999987
0.08000000000000002
0.1500000000000002
-0.17200000000000007
-0.13699999999999998
-0.07200000000000001
0.09400000000000008
-0.15200000000000005
-0.06299999999999989
0.14800000000000016
0.0030000000000000165
-0.003999999999999952
0.03599999999999999
-9.999999999999688E-4
0.03600000000000015
0.07500000000000004
0.06100000000000015
-0.036000000000000025
-0.010999999999999958
-0.028999999999999984
-0.005000000000000008
-0.02799999999999995
-0.07999999999999996
-0.05600000000000006
0.04900000000000001
0.05900000000000001
-0.1510000000000001
-0.04099999999999999
-0.08600000000000002
0.08400000000000005
0.06800000000000003
-0.21500000000000014
-0.10200000000000009
0.008000000000000033
0.10800000000000015
-0.009999999999999981
-0.013999999999999938
-0.1170000000000001
-0.007000000000000031
-0.053999999999999965
-0.024999999999999984
-0.013999999999999974
-0.003999999999999987
0.0910000000000001
0.020000000000000052
0.05199999999999995
0.018000000000000013
0.07100000000000006
0.0030000000000000217
-0.06899999999999981
-0.04099999999999994
-0.005000000000000008
0.04999999999999997
0.09700000000000003
0.014999999999999965
-0.040999999999999995
-0.08299999999999988
-0.04600000000000001
0.059
-0.28500000000000014
0.030999999999999975
-0.018000000000000033
0.0180000000000001
0.09700000000000006
0.006999999999999994
0.03200000000000001
-0.19500000000000012
0.028999999999999988
0.14400000000000018
0.03300000000000007
-0.13100000000000003
0.08400000000000005
-0.04599999999999996
0.011999999999999986
-0.006000000000000012
-0.03699999999999991
