0.002
0.006
-0.008999999999999998
0.006
-0.009000000000000001
0.001
0.002
1.734723475976807E-18
0.006000000000000008
-0.006
-0.001
0.001
-0.004
-0.006
-0.012000000000000002
-0.0020000000000000018
0.0029999999999999983
0.004
-0.002
-0.001
-0.002000000000000001
-0.007000000000000002
-0.003
-0.005
-0.002
0.008
0.004
-0.001
-0.008
0.0
0.007
-0.001
-0.012000000000000004
-0.001
-0.002
-0.006
-0.011000000000000003
-0.009000000000000001
-0.010000000000000002
-0.007000000000000001
-0.019000000000000003
-0.006
0.01
0.007999999999999998
0.013000000000000001
0.003999999999999998
0.002
0.008000000000000002
0.012000000000000007
0.005000000000000001
0.012
-0.026000000000000002
-0.011
-0.008000000000000004
0.003
-0.004000000000000001
0.007000000000000002
9.999999999999992E-4
0.006
0.002
-0.010000000000000002
-0.005
0.004
-0.007
-0.005000000000000001
-0.009000000000000001
-0.002
0.005
-0.005
0.002000000000000001
-0.001
0.012999999999999998
-0.006
-0.013999999999999997
-0.014
-0.006
0.0
0.007999999999999998
0.002000000000000001
0.004
-0.001
0.010999999999999998
0.018000000000000002
0.018000000000000002
-0.006
0.002
0.013000000000000001
-0.002
0.001
0.005
0.002
-0.002
-0.003
-0.002
-0.003
0.009
-0.005
0.005
-0.003
-0.023000000000000007
-0.005
-0.011
0.003
-0.020000000000000004
-0.006
0.021000000000000005
-0.0019999999999999966
0.003
0.009000000000000001
0.013000000000000001
0.01
0.004
0.019000000000000003
0.0
0.004
-0.008999999999999998
-0.009999999999999998
-0.016
-0.007
0.002
0.005
0.001
-0.011000000000000003
0.001
0.005
-0.006
-0.003
-0.002
-0.003
-0.009000000000000005
-0.009000000000000001
-0.005000000000000002
0.0020000000000000044
0.002
-0.004
-0.011
0.014000000000000002
0.003
0.011000000000000001
-0.021
-0.005
-0.012000000000000002
-0.003999999999999997
-0.001999999999999999
0.001
0.001
0.005
0.008000000000000007
-9.999999999999966E-4
0.002
-0.002
0.006000000000000002
-0.0020000000000000018
-0.001
0.011999999999999999
0.003
-0.003
0.0010000000000000009
-0.004
-0.003
0.003
-0.004
-0.003
0.0
0.011000000000000006
-0.004999999999999999
0.003999999999999999
-0.003000000000000001
-0.008
0.007999999999999997
-0.0070000000000000045
-0.002
-0.007
0.006
-0.015000000000000003
-0.012
0.004
0.001
0.011
-0.003
0.0
0.003
-0.014
-0.002000000000000001
0.003
0.001
0.0
-0.006
0.0019999999999999974
-0.013000000000000006
0.001
0.004
0.003
0.016999999999999994
0.011999999999999999
0.004
-0.012
-0.012000000000000004
-0.015000000000000001
0.001
-0.007999999999999998
-0.007999999999999997
0.006
-0.002
0.008
0.008999999999999992
-0.016000000000000007
-0.020000000000000004
-0.008
0.002
0.002
0.005
0.008
-0.007
0.002
0.003
-0.008
0.007
-0.005
0.001
-0.004
-0.009999999999999997
-0.005000000000000002
-0.003
0.005
0.004
-0.008
-0.02600000000000001
-0.017
-0.007
0.0019999999999999974
0.002
0.003
0.002
0.0010000000000000009
-0.003
0.007
0.010000000000000002
0.005
-0.004000000000000002
-0.003
0.001
0.015000000000000003
0.005000000000000004
-9.999999999999983E-4
-0.007
0.011000000000000003
0.004
0.003
-0.009000000000000001
0.0
0.011000000000000003
-0.005
0.01
0.018999999999999993
0.013999999999999999
-0.001
0.003
-0.002
-0.002
-0.007999999999999997
-0.0060000000000000045
-0.006000000000000001
0.001
0.011000000000000001
-0.003
0.0
-0.003
-0.002
-0.009000000000000001
-0.014999999999999998
-0.008
-0.004000000000000001
-0.002
0.010000000000000002
0.0040000000000000036
-0.004
0.003000000000000002
-0.002
0.005
-0.008
-0.003000000000000002
-0.012000000000000004
-0.006
0.0069999999999999975
0.014999999999999998
-0.006
0.003
-0.004000000000000002
0.001
-0.012000000000000007
-0.008
-0.023000000000000013
-0.015000000000000003
-0.001
-0.007
-0.011000000000000001
-0.016
-0.019
0.006
-0.010000000000000002
0.007000000000000002
0.004
0.002
-0.002
0.006
0.018000000000000002
-0.011000000000000003
-0.0029999999999999983
0.011000000000000005
0.002
-0.004
-0.011000000000000003
-0.002000000000000001
0.012000000000000004
0.008
0.005000000000000004
-0.007999999999999997
8.673617379884035E-19
-0.002
0.0
-0.01900000000000001
-0.020000000000000004
-0.018000000000000002
-0.01800000000000001
-0.024000000000000007
-0.009000000000000001
-0.015000000000000001
-0.014
-0.016
-0.018000000000000002
-0.007999999999999993
-0.003
-0.001999999999999999
-0.006
-0.001
-0.002
0.005999999999999997
-0.002000000000000001
0.006
0.007000000000000004
-0.002
-0.006
-0.009000000000000001
-0.002
0.009000000000000008
-0.011000000000000006
0.005999999999999997
-0.008
0.008
0.008
-0.004
-0.026000000000000002
-0.006000000000000011
-0.02500000000000001
-0.017
-0.03
-0.02900000000000002
-0.015000000000000003
-0.005
-0.016
0.008000000000000002
-0.007
-0.002
-0.016
-0.011999999999999993
-0.018000000000000002
0.011000000000000003
0.016
0.003
-0.004
0.009000000000000001
-0.004
-0.008
-0.002
-0.009000000000000001
0.015
0.001
0.008000000000000004
-0.008
-0.001
0.011000000000000003
0.006
0.0
-0.014
-0.0030000000000000044
-0.023000000000000007
-0.003000000000000002
-0.027000000000000003
-0.025
-0.005000000000000001
0.001
-0.01
0.011000000000000003
0.033000000000000015
0.010000000000000002
0.010000000000000002
0.002
0.014000000000000004
0.002999999999999999
-0.003
-9.999999999999992E-4
0.004
-0.006
-0.015000000000000006
0.001
-0.013999999999999999
-0.009000000000000001
0.007000000000000001
0.013999999999999999
-0.007
0.007999999999999997
0.024
-0.007
0.01
0.007000000000000001
-0.005
-0.002
-0.01900000000000001
-0.021000000000000005
-0.013
-0.001
0.013999999999999997
-0.006
0.005000000000000001
0.0
0.015999999999999997
0.008000000000000002
-0.012
0.0
-0.002999999999999993
0.0
-0.002
0.019999999999999997
-0.007
-0.005
-0.016999999999999994
-0.005999999999999997
-0.006
-0.007
0.013000000000000001
-0.007
0.008999999999999998
0.01900000000000001
-0.001
0.02600000000000001
0.019000000000000003
0.018000000000000002
0.022000000000000006
-0.003000000000000001
0.007
0.017
0.005000000000000005
0.006000000000000002
0.006
0.013999999999999999
0.015
-0.004
0.015000000000000005
0.009999999999999998
-0.002
-0.003
0.018000000000000002
0.003999999999999997
0.005000000000000001
-0.002
-0.004
-0.007
0.002
-0.003
0.007
0.012000000000000004
-0.012000000000000004
0.0030000000000000027
0.006
-0.024000000000000014
0.002999999999999993
0.003
0.008
0.00799999999999999
-0.010000000000000004
-0.011999999999999999
-8.673617379884035E-19
0.017
0.005
0.015000000000000005
0.015
0.005
0.012
0.016000000000000007
0.007000000000000002
0.009000000000000001
0.006000000000000001
0.006
0.009000000000000001
0.01
-0.001
-0.011000000000000003
0.0010000000000000009
-0.005
-0.006000000000000004
0.004
0.015
0.002
0.016999999999999994
0.016000000000000007
-0.009999999999999997
0.008
0.04
0.007000000000000001
-0.017
-0.015
-0.004
0.002
0.003
0.006
0.001
0.005
-0.008
0.014999999999999996
0.014000000000000007
0.005000000000000001
-0.001
0.009000000000000001
0.003
0.010000000000000002
-0.006
-0.006
-0.006
-0.002000000000000001
0.013000000000000001
-0.003000000000000001
0.011000000000000001
0.005
-0.001999999999999999
0.0
0.010000000000000009
-0.008
-0.02700000000000001
-0.012999999999999998
0.012000000000000002
0.003
0.0
0.001
0.007000000000000004
-0.004
0.002
-0.003
-0.020000000000000007
0.001
0.017000000000000008
0.02700000000000001
0.012999999999999998
0.006
-0.002000000000000001
0.011
0.003
0.002
-0.002
-0.008
-0.009000000000000001
-0.021000000000000005
-0.002
-0.004999999999999998
0.002
0.012
-0.001
0.017
-0.008999999999999994
-0.016000000000000004
-0.01900000000000001
-0.024999999999999994
0.008
-0.013000000000000001
0.015
0.01900000000000001
0.012000000000000005
0.008
-0.007
-0.042000000000000016
-0.0010000000000000009
0.01
0.004
0.01
0.006
-0.001
0.010000000000000002
0.005
-0.008
-0.004
-0.010000000000000002
0.0
-0.010000000000000002
-0.008
-0.001
0.018000000000000002
0.01800000000000001
0.017
0.011000000000000006
0.009000000000000001
-0.02800000000000001
-0.02400000000000001
-0.015
-0.020000000000000004
-0.008000000000000002
0.004
0.0
0.018000000000000002
-0.010000000000000002
-0.018
-0.011000000000000003
0.002
0.005
0.008
0.019000000000000003
0.006
0.010000000000000002
0.004000000000000004
0.008
8.673617379884035E-19
0.002
-0.006
0.004
-0.005
-0.012
-0.001
0.002
0.007
0.016
0.004000000000000002
-0.006
-0.005999999999999997
-0.022000000000000006
-0.014000000000000002
0.006
0.0
0.016000000000000007
0.020000000000000004
0.0
-0.008
-0.010999999999999992
-0.009999999999999995
-0.004
-0.005
0.006999999999999998
0.003000000000000001
-0.014
0.001
-0.016
-0.004
-0.004
-0.005
-0.010000000000000002
-0.006
-0.013000000000000001
-0.004000000000000001
-0.006000000000000001
-0.008
0.008000000000000004
0.01900000000000001
0.006999999999999997
0.009000000000000011
-0.013000000000000001
-0.007
-0.017
0.007
0.005
-0.001
0.006
-0.013
0.0
-0.016
-0.006000000000000001
0.008
0.015000000000000013
0.009000000000000001
-0.004
0.004
0.007000000000000002
-0.004
0.001
-0.002
0.004
-0.001
-0.003
0.001
-0.005
-0.019000000000000003
-0.010000000000000005
-0.011000000000000001
0.015
0.018000000000000002
0.011999999999999999
0.006
-0.016999999999999994
-0.017
0.001
0.006
0.010000000000000002
0.003
-0.005000000000000002
-8.673617379884035E-19
-0.005
-0.013999999999999999
-0.015
0.009000000000000001
0.004
-0.023000000000000007
0.011
-0.006
-0.008
0.003
-0.001
-0.002
-0.006
0.003
-0.005000000000000001
-0.008
-0.02500000000000001
-0.008
-0.009000000000000001
-0.020000000000000004
0.029000000000000012
0.010000000000000002
-0.003999999999999998
-0.004
-0.019999999999999997
0.001999999999999999
0.008
-0.019000000000000003
-0.003
0.004000000000000001
-0.008
0.006
-0.018999999999999996
0.022000000000000013
0.015000000000000008
0.003
-0.006
0.012999999999999994
-0.013999999999999999
-0.008
0.002
-0.009999999999999997
0.003
0.001
-0.005000000000000002
0.007000000000000001
0.0
-0.002999999999999999
-0.0020000000000000018
-0.008
-0.010000000000000002
-0.004
0.021000000000000005
-0.011000000000000001
0.01
-0.011999999999999997
-0.012000000000000002
0.0
-0.018000000000000002
-0.016000000000000004
0.010999999999999996
-0.009000000000000003
0.004
0.009000000000000001
0.005
0.011000000000000006
-0.009999999999999998
0.012000000000000004
0.001
-0.009999999999999997
-0.021999999999999995
0.004
-0.008000000000000004
0.003
-0.001
-0.004
-0.008
-0.006000000000000002
-0.007000000000000001
-0.005000000000000005
-0.012
-0.007
0.006
0.013999999999999995
0.003000000000000001
0.013000000000000005
-0.019000000000000003
-0.005
-0.015999999999999997
-0.005
-0.008999999999999998
-0.016000000000000007
0.0019999999999999983
0.011000000000000003
0.003999999999999999
0.02500000000000001
0.005
0.005000000000000004
-0.007
0.015000000000000003
-0.004
-0.002
0.004
-0.012000000000000005
-0.002
-0.003
-0.002
0.001
-8.673617379884035E-19
-0.009000000000000001
-0.007
0.017
-0.007
0.020000000000000004
0.007000000000000002
0.007
0.01800000000000001
0.007000000000000007
0.0
0.0
-0.001
-0.01
-0.0010000000000000009
-0.001
0.015999999999999993
0.01900000000000001
-0.001
0.005
0.008999999999999998
-0.019000000000000003
0.002
-0.012000000000000004
-0.0010000000000000009
-0.006999999999999999
-0.022
-0.001
-0.003
-0.010000000000000002
-0.019000000000000003
0.003
0.006000000000000001
0.004
0.001
-0.001
-0.005
0.007999999999999997
-0.005
0.005
-0.020999999999999998
8.673617379884035E-19
9.999999999999992E-4
0.012000000000000002
0.001
0.013999999999999999
0.011
0.01500000000000001
-9.999999999999992E-4
0.014000000000000004
0.001
-0.006999999999999997
0.013000000000000001
-0.003
-0.016
0.003
-0.002
-0.002
-0.002
-0.007
0.021999999999999992
0.004
-0.003
-0.016999999999999998
0.004
0.004
0.006000000000000001
0.001
-0.011
-0.001
0.011000000000000005
0.011000000000000003
0.008
0.0030000000000000035
0.015999999999999993
0.005
0.013999999999999999
-0.02
0.0
0.009000000000000001
0.0010000000000000035
-0.007999999999999997
-0.004
-0.016
-0.006000000000000001
-0.004
0.011000000000000001
0.015
-0.003
-0.001
-0.004
-0.005
-0.001
-0.001
0.007
-0.003
0.008
-0.004
-0.007
-0.006
0.012
1.734723475976807E-18
-0.004
0.003000000000000001
-0.007000000000000001
-0.007000000000000002
-0.014
0.012999999999999994
-0.011000000000000003
-0.013000000000000001
-0.016
-0.003
0.010000000000000002
0.001
-0.006
-0.005
-0.007000000000000002
-0.001
0.017
0.007
0.007
0.0
0.012
0.001
0.005000000000000002
0.002
0.006
0.015
-0.001
-0.022000000000000006
0.004
-0.001
-0.014000000000000004
-0.011000000000000003
0.0020000000000000018
0.001
0.023
0.016
-0.002
-0.018000000000000002
-0.018000000000000002
-0.008
-0.010000000000000002
0.010000000000000005
0.0
0.005
0.012000000000000004
0.002
0.002
0.001
0.008000000000000002
-0.005
0.0
0.009999999999999998
0.005
-0.002
0.001
0.01
-0.003
0.006
-0.014000000000000002
0.009000000000000001
0.009000000000000001
0.005
-0.003
-0.003
-0.007
-0.016
-0.026999999999999996
0.002
-0.004000000000000001
-0.005
-0.015000000000000005
0.014999999999999998
0.011000000000000001
-0.010000000000000005
1.734723475976807E-18
0.025
-0.002999999999999999
-0.005
-0.004
-0.006
-0.003
0.0
-0.003
-0.008
-0.016
-0.004
-0.002
0.0
0.001
0.008999999999999998
0.009000000000000005
0.009000000000000001
-0.024
-0.009999999999999995
-0.004
-0.010000000000000002
-0.017999999999999995
-0.013000000000000001
0.002
-0.023999999999999987
-0.004
0.007
0.001
0.004
-0.013000000000000005
-0.021000000000000005
-0.019
-0.007
-0.016
-0.008999999999999998
-0.004
-0.002
0.0
-0.009000000000000001
-0.011000000000000003
-0.004
-0.009000000000000001
-0.007999999999999998
-0.006
0.001
-0.007
0.005
0.01800000000000001
-0.004
-0.016
-0.014000000000000002
-0.007
-0.007
-0.007
0.002
-0.004
-0.008
-0.002
0.006
-0.009000000000000001
-0.011
0.001
0.001
-0.005
