0.0
0.044
-0.015999999999999993
-6.938893903907228E-18
-0.016999999999999994
0.03400000000000001
0.025
0.017
-0.012000000000000007
0.009000000000000008
0.006999999999999992
-0.043000000000000003
-0.013
-0.039000000000000014
-0.007999999999999995
-0.012000000000000002
-0.012
-0.077
-0.03600000000000001
-0.085
0.0050000000000000044
0.035
0.041999999999999996
-0.13799999999999993
-0.14800000000000002
0.08500000000000002
-0.024000000000000014
0.03600000000000002
-0.041999999999999996
0.04100000000000001
0.07600000000000001
-0.051000000000000004
-0.020000000000000007
0.024000000000000004
0.022
-0.05699999999999999
0.005999999999999997
-0.045999999999999985
0.028000000000000004
-0.020999999999999987
0.043000000000000045
-0.021999999999999995
-0.06899999999999998
-0.0030000000000000053
0.030000000000000006
0.01100000000000001
0.07699999999999999
-0.051000000000000004
-0.03900000000000001
0.07400000000000001
0.10400000000000001
0.04200000000000001
9.999999999999957E-4
0.071
0.05
0.017999999999999995
-0.051
-0.019000000000000006
-0.083
-0.007000000000000003
9.999999999999992E-4
