0.002
-0.023
0.018000000000000002
-0.02000000000000001
-0.011999999999999995
0.012999999999999994
-0.009000000000000005
-0.04899999999999999
-0.025
-0.017
0.008
0.018999999999999993
-0.018000000000000002
0.039999999999999994
0.05700000000000001
0.042
0.043000000000000003
0.014
-0.013999999999999999
0.004
0.014999999999999996
0.018000000000000016
-0.033999999999999996
0.021000000000000005
-0.024
0.025
-0.009999999999999995
0.021000000000000005
-0.01800000000000001
-0.009999999999999998
-0.002
0.003
-0.0029999999999999966
0.03299999999999999
0.0010000000000000018
0.05699999999999998
0.009000000000000003
0.03199999999999999
0.027999999999999997
0.013000000000000003
-0.016999999999999994
-0.011
-0.05200000000000001
-0.011999999999999997
-0.03599999999999999
0.020999999999999994
-0.064
-0.026
-0.095
-0.04099999999999999
1.734723475976807E-18
-0.03799999999999999
-0.005999999999999999
0.021
-0.044
0.019
0.012000000000000007
0.0020000000000000026
0.016
0.011999999999999999
0.004999999999999998
0.003
-0.031000000000000007
-0.007000000000000001
-0.016
0.023999999999999994
0.04299999999999998
-0.02800000000000001
0.029000000000000005
0.049999999999999996
0.01500000000000001
0.031999999999999994
-0.034
0.002000000000000001
-0.011
-0.0019999999999999974
0.0060000000000000045
0.028999999999999984
0.009000000000000001
-9.999999999999992E-4
-0.0030000000000000035
-0.005000000000000001
0.013999999999999999
-0.023000000000000007
-0.016
0.016
-0.03499999999999999
0.037000000000000005
-0.014999999999999996
-0.024000000000000004
0.024
-0.06999999999999999
-0.016000000000000004
0.0010000000000000018
-0.026000000000000002
-0.0029999999999999975
-0.02599999999999998
-0.004
-0.014000000000000004
-0.002999999999999994
-0.005
0.02600000000000001
-0.028
-0.028000000000000008
-0.013000000000000001
8.673617379884035E-19
0.008999999999999994
0.043000000000000003
-0.029
0.032
-0.018000000000000002
0.036
-0.018
0.009000000000000003
0.020999999999999998
0.034999999999999996
0.019000000000000003
0.005
-1.734723475976807E-18
-0.003000000000000001
-0.018000000000000002
-0.015000000000000006
-0.002000000000000001
-0.026000000000000002
-0.003999999999999998
-0.021000000000000005
0.018999999999999996
-0.004
-0.003
-0.011
-0.012000000000000002
0.004999999999999999
-0.011999999999999997
0.017999999999999995
-0.005999999999999994
0.018000000000000006
-0.046999999999999986
-0.038999999999999986
-0.02499999999999999
-0.004
0.0
