-0.004
0.008999999999999994
0.001000000000000027
-0.037000000000000054
-0.07899999999999992
0.014000000000000012
-0.04700000000000004
0.052999999999999964
-0.036000000000000004
-0.08300000000000002
0.13400000000000012
0.044000000000000115
0.02700000000000003
-0.03399999999999995
-0.018000000000000013
0.13599999999999993
-0.10299999999999998
0.06899999999999998
-0.037000000000000005
0.06199999999999997
-0.031000000000000225
0.01800000000000001
-0.0030000000000000183
0.031999999999999966
-0.019000000000000006
-0.07799999999999982
-0.00699999999999999
-0.12700000000000006
-0.11900000000000005
0.014000000000000047
0.11400000000000007
-0.09300000000000003
0.013000000000000008
0.015999999999999986
0.08400000000000002
-0.133
0.022999999999999986
0.04400000000000007
0.06000000000000028
-0.02899999999999999
-0.07399999999999997
-0.16700000000000004
0.07699999999999999
-0.07500000000000007
0.0030000000000000434
-0.1810000000000001
0.024999999999999974
0.010000000000000007
-0.1049999999999999
0.06600000000000014
-0.14500000000000002
0.10900000000000004
0.056999999999999856
0.007999999999999986
0.23000000000000015
0.06299999999999994
-0.11499999999999999
-0.003999999999999941
-0.2490000000000001
-0.3790000000000003
-0.033000000000000036
-0.05400000000000006
0.00399999999999999
-0.035999999999999956
0.031000000000000038
0.07100000000000006
-0.06599999999999999
-0.04699999999999991
-0.00899999999999999
0.048999999999999946
0.07100000000000001
0.1090000000000001
-0.1900000000000001
0.041999999999999996
0.09800000000000031
0.08299999999999992
0.13800000000000023
0.05700000000000004
0.088
-0.03699999999999999
0.025000000000000043
-0.07199999999999988
0.08199999999999985
-0.014999999999999953
-0.131
-0.06899999999999974
0.1180000000000001
-0.06800000000000006
-0.005999999999999995
0.15000000000000016
0.06300000000000006
-0.06999999999999995
-0.14600000000000005
-0.01600000000000001
0.008999999999999952
0.16200000000000014
-0.19000000000000003
-0.10400000000000001
-0.0049999999999999975
0.07500000000000012
-0.11099999999999996
-0.02899999999999996
0.1260000000000001
0.06100000000000008
0.10899999999999996
0.06199999999999996
-0.05199999999999989
0.10500000000000015
0.10600000000000007
0.1460000000000001
-0.07299999999999987
0.015000000000000001
-0.016999999999999994
0.03899999999999995
-0.027999999999999973
-0.02099999999999996
-0.10200000000000001
-0.006999999999999988
-0.010000000000000007
-0.24100000000000016
-0.017
-0.15000000000000002
0.002000000000000059
0.08700000000000016
-0.1330000000000001
-0.1640000000000001
0.12200000000000008
0.12800000000000009
-0.06699999999999989
-0.05799999999999993
-0.08399999999999999
-0.04399999999999999
-0.024999999999999998
0.021000000000000022
0.05600000000000001
0.013999999999999964
0.14900000000000038
0.09100000000000005
-0.019000000000000038
0.021999999999999974
0.0010000000000000625
-0.018000000000000044
-0.12499999999999983
-0.007999999999999974
0.0840000000000001
0.10000000000000003
0.07
0.05899999999999999
-0.047999999999999945
-0.05499999999999982
-0.123
0.1029999999999999
-0.21500000000000005
0.101
-0.014000000000000005
0.033000000000000036
0.11200000000000004
-0.03000000000000001
-0.022999999999999986
-0.028999999999999936
-0.00900000000000003
0.11000000000000013
0.02100000000000002
-0.15800000000000003
-0.013000000000000095
-0.04799999999999999
-0.02599999999999994
0.033000000000000015
-0.12000000000000005
