0.003
0.028000000000000014
-0.07800000000000001
-0.06300000000000001
-0.07999999999999999
-0.028999999999999988
0.06100000000000002
1.1275702593849246E-17
0.05299999999999997
-0.024999999999999988
0.041999999999999996
-0.0020000000000000035
-0.006999999999999994
-0.0040000000000000105
-0.017999999999999988
-0.027
0.026000000000000002
-0.10199999999999997
-0.02500000000000001
-0.005000000000000007
-0.044
0.026999999999999993
0.12500000000000003
0.04300000000000001
0.05300000000000001
0.04200000000000001
-0.002000000000000001
0.06000000000000001
0.00799999999999999
0.029
0.010999999999999992
-0.056999999999999974
0.036
0.056999999999999995
0.021000000000000005
0.05299999999999999
0.009999999999999988
0.05800000000000001
-0.003000000000000008
-0.047000000000000014
-0.08000000000000006
0.04600000000000001
0.07299999999999998
0.05599999999999998
0.023000000000000003
0.012
-0.04000000000000001
-0.0030000000000000027
-0.002000000000000015
0.04600000000000003
0.018999999999999982
-0.034
-0.05800000000000003
-0.12899999999999998
0.010000000000000009
0.06999999999999999
-0.015000000000000008
0.02800000000000001
-0.07699999999999997
0.002999999999999995
-0.07400000000000002
0.029999999999999995
0.023999999999999994
0.026000000000000002
-0.024000000000000004
0.018
-0.041999999999999996
-0.036000000000000004
-9.999999999999983E-4
-0.03900000000000002
0.029
-0.121
0.018000000000000002
0.009000000000000005
-0.014999999999999996
0.012000000000000004
-0.03799999999999998
0.01500000000000001
0.020999999999999998
-0.01199999999999999
0.023000000000000007
0.08600000000000003
0.05300000000000001
0.023000000000000013
0.034999999999999996
0.056
0.043000000000000003
-0.09499999999999999
-0.049999999999999975
0.020000000000000007
0.010999999999999987
0.019000000000000003
-0.009000000000000008
-0.037000000000000005
-0.002000000000000001
0.00799999999999999
-0.11999999999999997
-0.038
-0.010000000000000004
0.04600000000000002
-0.008000000000000002
