0.006
-0.05499999999999999
-0.022999999999999996
0.016999999999999987
-0.0010000000000000018
0.005
-0.021999999999999992
0.006000000000000001
0.044
0.021000000000000005
-0.05999999999999999
-0.022999999999999996
0.004
-0.026
-0.042999999999999976
0.06300000000000001
0.023000000000000007
-0.033
0.004999999999999998
-0.05
0.006000000000000002
-0.027000000000000017
-0.012000000000000005
-0.013000000000000001
-0.010000000000000002
-0.026000000000000002
-0.008000000000000002
0.001
-0.016000000000000004
-0.008000000000000007
-0.006
0.013000000000000006
-0.012999999999999989
-0.015999999999999993
-0.010000000000000005
-0.018000000000000006
-0.021000000000000008
0.03400000000000001
0.005
-0.01999999999999999
0.031999999999999994
-0.005
-0.014999999999999993
0.004000000000000002
0.013
0.045
-0.004999999999999999
0.006999999999999999
0.005000000000000004
0.007000000000000002
0.044
0.014000000000000007
-0.003999999999999998
0.04499999999999999
-0.019999999999999997
0.006
0.0029999999999999975
-0.016000000000000004
-0.002
0.001999999999999999
-0.040999999999999974
0.015000000000000001
0.009999999999999998
-0.017000000000000005
0.0030000000000000035
0.032
-0.008
0.029000000000000015
-0.015999999999999993
-0.083
-0.04599999999999998
0.004
-0.02499999999999998
-0.017
0.009999999999999998
-0.002000000000000001
0.004000000000000001
-0.004000000000000003
-0.004999999999999999
-0.006
0.010000000000000002
-0.04000000000000001
0.044
0.009000000000000001
-0.03899999999999999
0.0069999999999999975
0.018000000000000002
0.028999999999999998
-0.005000000000000001
0.009999999999999998
-0.015000000000000001
0.027999999999999997
0.009000000000000005
-0.012
-0.03799999999999998
-0.013000000000000008
0.012999999999999996
0.04499999999999999
0.009000000000000005
0.028999999999999988
0.043
-0.005000000000000004
0.044999999999999984
0.04600000000000001
-0.009999999999999998
-0.005000000000000001
0.023
-0.015999999999999993
-0.003999999999999993
0.004999999999999994
-0.016
-0.003000000000000001
0.02600000000000002
0.009000000000000001
0.003999999999999999
-0.016000000000000004
0.002
0.03799999999999999
0.0029999999999999983
0.06300000000000001
0.013999999999999995
-0.017000000000000005
0.033
0.003999999999999991
-0.018
0.017
0.027000000000000014
-0.03999999999999999
-0.012999999999999994
-0.024000000000000004
-0.060000000000000005
0.009000000000000001
0.009999999999999998
-0.03100000000000001
0.019000000000000003
0.0019999999999999983
-0.016999999999999994
-0.015000000000000003
-8.673617379884035E-19
0.007000000000000002
0.008
0.019000000000000003
-0.038999999999999986
0.018000000000000006
0.005
-0.0010000000000000026
0.02
0.022000000000000013
0.005
0.014000000000000002
-0.004
0.04300000000000001
0.011
-0.018999999999999996
-0.05699999999999998
-0.017000000000000005
-0.014999999999999996
-0.019000000000000006
0.011
-0.007999999999999998
-0.015000000000000003
-0.017999999999999995
-0.017
0.037999999999999985
-0.007000000000000006
-0.03899999999999999
0.0029999999999999957
-0.027999999999999983
-0.022
0.06000000000000001
0.031000000000000003
-0.020999999999999998
0.025
-0.012000000000000004
0.010000000000000005
0.005000000000000004
-0.007000000000000004
0.029000000000000005
-0.005000000000000004
0.05300000000000001
-0.0020000000000000035
-0.03399999999999999
-0.016
9.999999999999974E-4
0.014000000000000002
-0.029000000000000005
0.002000000000000001
-0.004
0.010000000000000004
-0.012000000000000004
0.011
0.038
0.030999999999999996
-0.011
-0.009999999999999998
0.02400000000000001
-0.03299999999999999
0.003000000000000002
-0.004999999999999998
-0.003
2.6020852139652106E-18
0.01
-0.011000000000000001
0.008
0.007
-0.040999999999999995
-0.01
-0.009000000000000008
-0.006000000000000001
0.0
0.0
