0.001
-0.019999999999999993
0.018000000000000002
-0.018
-0.025
0.036000000000000004
0.019999999999999997
-0.044
0.032
-0.012
-0.0010000000000000009
0.044999999999999984
0.013000000000000005
-0.012999999999999994
-0.008
0.010000000000000002
0.0029999999999999975
-0.030000000000000006
0.011999999999999993
-0.03500000000000001
-0.0010000000000000026
0.034000000000000016
0.02300000000000001
0.016999999999999998
-0.025
0.002000000000000001
-0.0020000000000000035
-0.014000000000000002
-0.029
-0.006999999999999999
0.014999999999999998
-0.029
-0.02799999999999999
0.047000000000000014
0.03399999999999999
0.008000000000000009
0.0
0.006000000000000004
9.999999999999983E-4
-0.0010000000000000035
-0.011999999999999997
0.033999999999999996
0.028
-9.999999999999992E-4
-0.08700000000000002
-0.009000000000000003
0.044
0.014000000000000002
-0.09200000000000003
-0.039999999999999994
0.015
-0.01
-0.05700000000000002
0.03
4.336808689942018E-18
0.0059999999999999975
0.04999999999999998
0.022999999999999993
0.033
0.0010000000000000009
0.026000000000000002
0.031
-0.003999999999999997
0.017000000000000005
0.029
0.014
0.041
-0.002
0.089
0.032
0.04099999999999999
-0.033999999999999996
0.007000000000000002
0.008
0.018999999999999993
-0.020999999999999998
-0.007000000000000001
0.004999999999999997
-0.0020000000000000018
-0.005000000000000007
-0.016
0.025
-0.042999999999999976
-0.030000000000000002
-0.012999999999999996
0.012999999999999998
-0.002999999999999999
-0.036000000000000004
-0.007999999999999997
-0.032000000000000015
-0.015000000000000006
-0.014000000000000002
-0.036000000000000004
0.022000000000000006
-0.011000000000000001
-0.044
-8.673617379884035E-19
0.02800000000000001
0.022
-0.028
-0.019999999999999997
-0.0019999999999999983
-0.05900000000000001
0.012
-0.04100000000000001
0.007000000000000001
0.024
0.016
-0.006999999999999999
0.019000000000000003
-0.010999999999999987
0.012
-0.040999999999999995
-0.010000000000000004
0.009000000000000005
0.003000000000000006
-0.032
0.005000000000000001
0.035
-0.031000000000000003
-0.004
0.0049999999999999975
-0.017999999999999995
-0.02999999999999999
0.032999999999999995
0.032
-0.0010000000000000044
0.0010000000000000026
0.014000000000000002
0.005
0.013000000000000003
-0.04599999999999999
-0.073
-0.010999999999999996
0.007999999999999998
-0.05700000000000001
-0.014999999999999982
-0.014
0.008
-0.008999999999999998
-0.013000000000000001
