0.002
0.006000000000000001
0.003
-0.017
-0.002
0.0
-0.009000000000000001
-9.999999999999983E-4
-0.003999999999999998
-0.024999999999999998
-0.022999999999999993
-0.002
0.011000000000000001
0.012
0.013000000000000001
-0.001
-0.007
-0.004000000000000001
0.007
0.003000000000000001
0.004000000000000001
0.002
-0.01
-0.007000000000000002
0.0
-0.004999999999999997
0.002
-0.004999999999999998
0.010000000000000002
0.011
0.001
0.005
-0.009999999999999998
0.024999999999999998
0.018999999999999996
-0.004
-0.001
0.013000000000000001
-0.009999999999999998
-0.013000000000000001
-0.001999999999999999
-0.002
0.009
-0.010000000000000002
0.004
0.014000000000000002
0.0
-0.011
0.007
-0.017
0.016000000000000004
0.011
-0.001
-0.005
-0.013000000000000001
-0.003000000000000001
0.003
0.006999999999999998
-0.004
-0.027
-0.009999999999999998
0.009000000000000001
0.012000000000000004
-0.004
0.001
-0.012000000000000004
0.003
-0.009000000000000001
-0.024999999999999994
-0.015000000000000001
-0.008
0.014000000000000002
-0.005999999999999999
-0.013999999999999999
0.020999999999999998
-0.005
0.003
0.010000000000000002
-0.006
-0.020000000000000004
0.012
0.002
-0.003
-0.009000000000000001
-0.006
0.0
-0.002
0.002
-0.009000000000000005
0.002
0.003
-0.009000000000000001
-0.011000000000000001
-0.005
-0.008
-0.030999999999999993
0.008
0.016
-0.005
-0.014000000000000004
-0.02
0.003
0.007000000000000001
-0.001
-0.017
0.0010000000000000009
0.009000000000000001
0.0
-0.007
-0.008000000000000004
-0.011000000000000001
-0.004
0.001
0.0
-0.011000000000000003
-0.010000000000000002
-0.007000000000000001
-0.003
0.007000000000000001
-0.013000000000000001
-0.007
-0.011999999999999997
0.004
0.004
0.0020000000000000018
-0.016
-0.001
0.005
-0.002000000000000001
0.004
-0.022000000000000002
0.012
0.006999999999999999
-0.005999999999999997
0.001
-0.005
0.026000000000000002
0.016
0.018
0.010000000000000005
-0.016
0.009000000000000001
0.012999999999999998
0.006999999999999999
0.003
-0.006
-0.005
0.004
0.012
0.010000000000000002
0.010000000000000002
0.013000000000000001
0.002
0.009000000000000001
0.004
0.008
0.02
-0.001
0.012000000000000004
-0.006
0.007
-0.009999999999999993
-0.003
0.014000000000000002
0.002
0.002999999999999999
0.02
0.019999999999999997
0.010000000000000002
0.010000000000000002
0.009000000000000001
0.01
0.007
0.008
0.003
-0.004
-0.001
0.004
0.004
-0.014000000000000002
-0.006
0.0
0.007
0.008
-0.012
0.008
-0.009000000000000001
0.005
0.013
-0.007000000000000005
0.002999999999999999
0.0
-0.004
0.013999999999999995
-0.008
0.008
-0.008999999999999998
0.001
0.006
-0.011000000000000003
0.006
-0.005
-0.009000000000000003
0.008
-0.008
0.0
-0.005
0.002
0.010999999999999996
-0.003
0.006
-0.011
-0.015999999999999993
0.0
0.0
0.011000000000000003
0.019
0.001
-0.005000000000000001
-0.007
0.0
-0.008
0.005
0.004
-0.001
-0.008999999999999998
0.0
-0.009000000000000001
0.005
-0.007000000000000002
-0.008999999999999998
0.007
0.002
0.005
-0.002
-0.008
0.013000000000000005
0.004
0.004000000000000001
0.011999999999999997
-1.734723475976807E-18
-0.008
-0.003
0.004000000000000001
0.003
-0.014
0.004
0.002
0.002000000000000001
-0.001
0.004
0.005
0.013000000000000001
0.004
0.002
-0.010000000000000002
-0.009999999999999998
-0.002
0.0
0.007
-0.004
-0.016
-0.012000000000000004
0.009000000000000001
-0.009999999999999998
-0.002
0.0
-0.024999999999999998
-0.003
-0.005
-0.003
0.012
-0.022
-0.003
-0.016000000000000004
0.002
0.007
0.003
0.0069999999999999975
-0.006
-0.006
0.007
-0.017
-0.008999999999999998
0.025
-0.007
0.003
0.002
0.001
0.002
0.004
-0.009
0.013000000000000001
0.011000000000000001
0.0
0.012
0.001
-0.004000000000000001
0.019
-0.006000000000000001
0.007
0.012999999999999994
-0.003
0.007
-0.008999999999999996
0.004000000000000001
0.009000000000000001
0.005
0.0020000000000000018
-0.014999999999999998
0.009000000000000001
0.008
-0.011
-0.013999999999999999
-0.005
-0.003
-0.002000000000000001
0.003
-0.008
-0.001
0.007000000000000001
-0.006
-0.002
-0.020999999999999998
-0.006
-0.002
-0.003
-0.009999999999999995
-0.032
-0.020999999999999998
-0.009000000000000001
-0.006
0.010000000000000002
-0.008
-0.006
-0.001
-0.004
-0.01
-0.018999999999999996
0.005
-0.015000000000000003
-0.009000000000000001
0.010000000000000002
-0.010000000000000002
-0.019999999999999997
-0.004000000000000001
-0.01
0.0
0.0
0.0
0.0
