0.002
-0.01
-0.011999999999999993
0.003999999999999998
-0.009000000000000001
-0.027
-0.034
0.013999999999999992
0.011000000000000003
-0.031000000000000003
0.024000000000000004
0.04600000000000001
0.005000000000000001
-0.007
0.009000000000000001
0.024000000000000004
0.019
0.012
0.038000000000000006
-0.007000000000000002
-0.031000000000000003
-0.018
-0.024000000000000007
0.038000000000000006
0.012000000000000004
-0.008000000000000007
0.013000000000000012
0.004999999999999998
-0.0020000000000000035
0.023
-0.016
-0.013999999999999997
-0.035
-0.0010000000000000018
-0.041999999999999996
-0.016
-0.012
-0.031000000000000003
-0.01
0.002
0.01
-0.009999999999999998
0.052999999999999985
0.028000000000000008
-0.011000000000000001
-0.04199999999999999
-0.027
-0.01900000000000001
-0.03600000000000002
-0.014999999999999996
0.011999999999999999
0.015000000000000003
-0.003
0.01
0.021999999999999995
-0.002
-0.004
-0.019999999999999993
-0.04100000000000001
-0.051000000000000024
-0.05
0.021000000000000005
0.011000000000000001
0.007
0.030000000000000002
0.014000000000000009
0.016000000000000004
-0.043000000000000003
0.009000000000000001
-0.002
0.009000000000000001
0.012
-0.011999999999999999
0.009000000000000001
0.034
0.013000000000000001
0.05299999999999999
0.025000000000000012
0.013
-0.025000000000000005
-0.040999999999999995
-0.018000000000000002
0.029000000000000005
0.034
0.002999999999999999
-0.023
-0.007000000000000001
-0.018000000000000002
-0.030000000000000002
0.036000000000000004
0.022000000000000002
0.024999999999999994
0.005
0.009000000000000005
0.009999999999999997
0.031
-0.05099999999999998
-0.033
-0.016
0.03
-0.033
-0.003999999999999998
0.008
0.009999999999999998
0.026
0.006999999999999999
-0.044000000000000004
-0.0010000000000000018
0.03799999999999998
0.047
-0.02500000000000001
0.012000000000000004
9.999999999999948E-4
-0.006
0.012
0.005999999999999998
0.006999999999999999
0.005
0.005
-0.02
0.003999999999999996
0.024000000000000004
0.039
0.023
-0.006000000000000002
-0.03200000000000001
-0.01
0.028999999999999998
0.015000000000000005
0.014000000000000009
0.009000000000000005
-0.003
-8.673617379884035E-19
0.0019999999999999966
-0.015000000000000003
-0.0010000000000000009
0.0019999999999999983
0.025
0.006
0.036
0.02099999999999999
-0.005
0.008999999999999998
0.005
-0.009
0.011
0.032999999999999995
0.03200000000000001
0.022999999999999993
0.0019999999999999983
-0.02300000000000001
0.009000000000000001
-0.06599999999999998
-0.043000000000000003
-0.002999999999999999
0.0030000000000000027
0.008999999999999994
0.0
0.022000000000000002
-0.026000000000000002
-0.008000000000000007
-0.021
-0.022000000000000002
-0.04000000000000001
-0.048
0.0030000000000000035
0.022
-0.010000000000000005
-0.018
