0.002
0.019999999999999997
0.006
-0.008999999999999998
0.013000000000000001
0.011000000000000003
0.018000000000000002
0.017000000000000005
0.013000000000000001
0.008
0.011000000000000003
0.006000000000000001
0.008
-0.004
0.018000000000000002
0.010000000000000002
0.002000000000000001
0.008
0.002
-0.024000000000000007
-0.009000000000000001
0.001
0.019999999999999997
0.008
-0.009999999999999993
-0.011999999999999997
0.012000000000000004
0.02000000000000001
0.026000000000000002
0.008999999999999998
0.004
0.015000000000000005
0.002
0.008
0.016000000000000007
0.003
-0.004
0.0
-0.009000000000000001
-0.001
-0.014999999999999986
-0.005000000000000002
-0.006
-0.007
-0.005000000000000001
0.003
0.007000000000000001
-0.008
-0.003000000000000002
-0.003
0.012000000000000004
-0.015000000000000003
0.003
-0.01
-0.001
-0.028999999999999984
-0.014000000000000005
0.003
-0.008
0.009999999999999998
0.022000000000000002
0.015000000000000003
-0.003
-0.003
-0.018000000000000002
-0.005
0.002
0.002
0.009000000000000001
-0.002
-0.002
0.004
-8.673617379884035E-19
-0.008
0.011
0.005
0.011
-0.011
0.012
0.011999999999999997
0.0
0.008
-0.009000000000000001
0.009000000000000001
-0.012999999999999998
-0.003
0.018000000000000002
0.019000000000000003
0.022000000000000006
0.017999999999999995
0.007
0.008000000000000005
-0.009000000000000001
-9.999999999999992E-4
0.024000000000000007
9.999999999999992E-4
-0.014
-0.011
-0.022999999999999996
9.999999999999983E-4
-0.013999999999999999
-0.014000000000000002
-0.006
0.012
0.007999999999999998
0.009000000000000006
0.005000000000000002
-0.01
-0.008
-0.019000000000000003
-0.021999999999999992
-0.006000000000000004
-0.03200000000000001
-0.016
-0.01899999999999999
0.005000000000000007
-0.03599999999999999
-0.03299999999999999
-0.03700000000000001
-0.026999999999999996
0.0
0.007
0.008999999999999994
0.005000000000000002
-0.015999999999999993
-0.032000000000000015
0.001
0.003
0.028999999999999995
0.038000000000000006
0.005000000000000001
0.009999999999999995
0.021999999999999995
0.006000000000000001
-0.011999999999999997
-0.017
-0.017999999999999988
0.023000000000000003
-0.003
0.010000000000000002
-0.009000000000000001
-0.012999999999999998
-0.008
-0.013999999999999992
0.022
0.011000000000000005
-0.0049999999999999975
-0.005
0.011000000000000003
0.0
-0.001
-0.005
0.002
-0.012000000000000007
-0.022000000000000002
-0.019
-0.006
-0.003
-0.008
-0.010000000000000002
-0.004
-0.020999999999999994
-0.008
-0.013999999999999993
-0.019000000000000003
0.014000000000000002
0.007000000000000002
-0.002
0.012
0.008
0.014999999999999996
0.022999999999999996
0.0
0.015999999999999997
0.038000000000000006
0.016999999999999994
-0.019999999999999997
0.008
-0.011
-0.024999999999999994
-0.003
-0.004000000000000005
0.008000000000000002
-0.007
0.008
-0.013999999999999999
-0.029
-0.005999999999999999
-0.014999999999999994
0.004
0.024
0.005
0.005
0.003
0.005000000000000001
0.007000000000000001
-0.013999999999999995
-0.013999999999999999
-0.011999999999999997
-0.015000000000000001
-0.022000000000000006
-0.004000000000000001
-0.008999999999999998
-0.016
-0.03200000000000001
-0.024000000000000007
-0.02500000000000001
0.009000000000000005
-0.004999999999999999
0.03900000000000001
0.013000000000000005
0.013000000000000008
0.015000000000000001
0.014999999999999996
0.008000000000000004
0.012000000000000005
-0.003000000000000002
-0.013000000000000003
-0.0010000000000000009
0.012
0.005
-0.013000000000000001
-0.006000000000000001
0.013000000000000006
-0.002
-0.009
-0.016000000000000004
-0.008
0.005000000000000002
-0.022999999999999993
-0.022000000000000006
-0.016
-0.017
-0.010000000000000002
-0.024
0.003
-0.008
0.004
-0.003
-0.012999999999999998
0.013999999999999999
-0.004
-0.009000000000000001
-0.006
0.009000000000000003
0.011000000000000001
0.011000000000000001
0.003
-0.003000000000000001
0.007000000000000001
-0.015000000000000001
0.004
-0.005
0.011000000000000003
0.011000000000000003
0.006
0.006
0.0
0.011000000000000001
0.018000000000000002
0.003
0.011
0.005000000000000001
0.008
0.0
0.004
-0.006
0.010000000000000004
0.009
0.002
0.007
0.005
-0.001
-0.005
-0.018000000000000002
-0.010999999999999996
-0.009000000000000001
-0.009000000000000001
-0.014999999999999998
0.001
-0.008
-0.002999999999999999
-0.003
0.011000000000000001
-0.007000000000000001
0.024999999999999994
-0.016
-0.004
-0.004000000000000004
0.002
0.008
-0.007
-0.01
0.028000000000000004
0.017999999999999995
-0.006000000000000001
-0.01
-0.007
-0.016999999999999994
0.001
0.001
