0.002
-0.002999999999999999
-0.016
-0.012
-0.007
-0.006000000000000001
0.007000000000000001
-0.0069999999999999975
-0.001
-0.019999999999999997
0.005
0.004999999999999996
0.007
-0.013000000000000001
-0.014
-0.0019999999999999983
-0.003
-0.004
0.003999999999999999
0.007
-0.004000000000000002
-0.015
-0.012
0.008
9.999999999999992E-4
-0.011
0.0019999999999999983
0.026
0.003
0.006
-0.013000000000000005
-0.023999999999999997
-0.0029999999999999975
-0.011
-0.012999999999999998
-0.004
-0.002
-0.013000000000000001
0.0
0.019000000000000003
0.017
-0.009000000000000001
-0.005
-0.013000000000000001
-0.001
-0.005000000000000001
-0.001
-0.009000000000000003
-0.015999999999999997
-0.001
-0.005
0.004
-0.008
-0.007
-0.004
-0.013000000000000005
-0.006999999999999998
0.001
0.001
-0.005000000000000001
-0.015
0.006
0.010000000000000002
-0.012
-0.003000000000000001
0.010000000000000002
0.002
0.012
0.010000000000000002
0.006
-0.001
-0.011
0.006
9.999999999999992E-4
-0.011
0.002
0.005
8.673617379884035E-19
0.012
-0.023
-0.023000000000000003
0.019999999999999997
0.015000000000000003
-0.011
0.005
0.019000000000000003
-0.009000000000000001
0.003
-0.028
0.006
0.002
-0.022
-0.030000000000000002
-0.005000000000000001
0.015
0.0
-0.025000000000000005
0.0
0.017
-0.001
-0.027000000000000003
-0.015
0.009999999999999998
-0.016
-0.009000000000000001
0.004
0.016999999999999998
0.004000000000000002
-0.008000000000000002
0.006999999999999998
0.017
0.004
-0.012
-0.002
0.022
0.006000000000000001
0.006000000000000001
0.009000000000000001
0.018000000000000002
-0.001
0.003000000000000001
-0.004000000000000001
0.008
-0.0010000000000000018
-0.011
0.015000000000000003
0.007000000000000001
-0.006
0.008999999999999994
0.014000000000000002
0.007000000000000001
0.001
0.007000000000000002
0.007000000000000002
0.018000000000000002
-0.002
0.014
-0.006
0.016999999999999994
-0.002
-0.003000000000000001
-0.0010000000000000018
0.014000000000000002
-0.006
0.016
0.002
0.010000000000000002
-0.009000000000000001
-0.016999999999999998
-0.007
0.002
0.001
0.007000000000000001
-0.012000000000000007
0.006
0.011999999999999997
0.004000000000000001
-0.009000000000000001
0.003
0.006
-0.003
-0.006
-0.002
-0.002
-0.003999999999999999
-0.022000000000000006
-0.002
0.015000000000000001
0.007000000000000002
-0.007000000000000001
-0.005
0.005999999999999999
0.013000000000000001
-0.004
-0.002
0.014
-0.008
-0.01
-0.009000000000000001
0.024000000000000004
0.023000000000000003
-0.011
0.0
0.016000000000000004
-0.001
-0.005
0.002
0.007000000000000001
0.006
-0.013000000000000003
0.0
0.015999999999999997
0.001
0.007000000000000001
-0.006
0.009000000000000001
0.001
0.006
0.002
0.010000000000000002
0.001
-0.008
-0.0029999999999999975
0.011
-0.010999999999999998
0.004
0.003
0.022
-0.019999999999999997
0.007
0.011999999999999999
0.015999999999999997
-0.002
0.011000000000000003
-0.009
-0.009999999999999998
0.023
0.012
-0.011000000000000001
-0.012
-0.016
-0.010000000000000005
-0.003
0.005000000000000001
-0.016
0.02
0.009000000000000001
0.009000000000000001
-0.006
0.017
0.019
-0.003
-0.009000000000000001
0.019000000000000003
0.032999999999999995
-0.032
0.012
-0.017
-0.006000000000000001
0.0
0.002
-0.006
0.004
-0.004
0.006
0.003
0.002
-0.009000000000000001
-0.006
0.002
0.006000000000000002
0.008000000000000005
-0.002
-0.002
-0.003
0.002
-0.009000000000000001
-0.002
0.005
-0.012
-0.011
0.002
-0.0019999999999999983
-0.020999999999999998
-0.018000000000000002
-0.017
0.009000000000000001
0.005999999999999999
-0.011999999999999997
-0.004
-0.010999999999999996
0.002
-0.005
-0.019000000000000003
-0.018
-0.013999999999999999
-0.026
-0.015000000000000001
0.0
0.0
0.0
