0.0
-0.06600000000000002
0.0019999999999999966
0.021000000000000005
-0.029000000000000005
-0.052999999999999964
-0.04299999999999999
0.020000000000000004
-0.009000000000000015
0.046
0.045
-0.038000000000000006
-0.016
-0.024000000000000014
-0.04500000000000001
0.0029999999999999923
-0.029
-0.0010000000000000009
0.007999999999999997
0.008999999999999994
0.008999999999999998
0.005
-0.03200000000000001
0.04500000000000002
0.014999999999999993
0.02399999999999999
-0.028000000000000004
-0.08299999999999999
-0.07799999999999999
-0.07199999999999998
-0.10999999999999999
-0.07400000000000001
-0.044
-0.006000000000000015
-0.03199999999999998
3.469446951953614E-18
0.087
0.08699999999999997
0.038
0.023000000000000007
-0.031999999999999994
0.021000000000000005
0.03599999999999999
0.013000000000000017
0.12599999999999995
-0.017
-0.034999999999999996
0.008999999999999998
0.015000000000000015
-0.015000000000000003
-0.06800000000000002
-0.10099999999999999
0.0010000000000000113
0.06700000000000002
0.06599999999999998
0.062000000000000006
-0.048
-0.0010000000000000044
-0.014999999999999982
-0.0020000000000000113
-0.025999999999999985
0.004999999999999993
0.08000000000000002
0.0020000000000000087
-0.01700000000000001
-0.024999999999999994
0.05799999999999998
0.03600000000000002
-0.002999999999999993
-0.006000000000000005
0.032999999999999974
0.03000000000000001
0.09399999999999999
0.038000000000000006
-0.005999999999999997
-0.05700000000000001
