0.005
-0.031000000000000014
-0.0010000000000000044
-0.020999999999999998
-0.04200000000000001
0.024999999999999998
0.016999999999999994
-0.029000000000000005
-0.045000000000000026
0.026000000000000002
-0.045000000000000005
-0.0019999999999999957
-0.007
-0.017999999999999995
0.015000000000000008
-0.008000000000000004
-0.022000000000000002
-0.0020000000000000035
-0.05
-0.020000000000000007
-0.017000000000000005
-0.022999999999999996
1.734723475976807E-18
-0.018999999999999993
-0.0069999999999999975
0.036
-0.033
-0.057999999999999996
-0.002
0.012000000000000002
-0.09200000000000001
0.006999999999999996
-0.0019999999999999914
-0.032
0.03300000000000001
-0.026000000000000016
-0.07100000000000001
-0.013000000000000005
-0.028000000000000004
-0.037000000000000005
0.028999999999999998
-0.0049999999999999975
-0.024
0.04299999999999998
-0.020000000000000004
0.03900000000000001
0.021999999999999985
-0.006000000000000001
0.021999999999999995
0.07
0.013000000000000008
0.06900000000000002
0.045000000000000005
-0.0010000000000000035
0.012999999999999994
0.067
0.020000000000000004
0.03199999999999999
0.026000000000000002
8.673617379884035E-19
0.03099999999999999
-9.999999999999983E-4
-0.002
0.012
0.014
-0.027000000000000003
0.019
0.01200000000000001
0.0010000000000000035
-0.01
0.019999999999999997
0.009000000000000001
-0.038
0.0060000000000000045
0.030000000000000006
-0.025
-0.06000000000000001
0.005000000000000001
-0.04
-0.0040000000000000036
0.022
-0.033000000000000015
0.0010000000000000035
0.035
-0.036000000000000004
-0.019000000000000003
0.034999999999999996
0.011
0.0010000000000000026
0.009000000000000001
-0.026999999999999996
0.007000000000000001
-0.01900000000000001
0.07400000000000001
0.035
-0.018
0.038
0.012000000000000007
-0.039
0.00899999999999999
-0.04699999999999999
-0.014000000000000009
-0.034
-0.024000000000000007
-0.017
-0.02899999999999999
