0.006
-0.08299999999999999
0.042000000000000016
0.102
-0.010999999999999989
-0.029999999999999985
0.10700000000000005
0.013999999999999988
-0.043000000000000045
-0.046000000000000006
-0.08399999999999994
-0.08100000000000002
-0.01500000000000002
0.03199999999999999
-0.065
-0.01799999999999999
-0.012999999999999998
0.021999999999999985
-0.08699999999999997
0.04699999999999999
0.061
0.06499999999999999
-0.058000000000000024
0.055000000000000014
-0.12899999999999995
-0.07599999999999998
-0.023000000000000013
0.133
0.015999999999999986
0.18300000000000005
-0.06599999999999998
0.024999999999999974
-0.009000000000000008
0.06000000000000001
0.08199999999999999
0.09299999999999999
-0.025999999999999992
0.002000000000000014
-0.063
0.05300000000000002
-0.007999999999999995
-0.03799999999999998
0.03300000000000001
-0.09299999999999994
-0.04800000000000002
-0.003999999999999998
-0.06399999999999999
0.04500000000000001
-0.07300000000000001
-0.018000000000000016
0.009000000000000001
-0.06899999999999998
-0.038000000000000006
0.00999999999999999
-0.05399999999999999
-0.0020000000000000157
-0.02699999999999999
0.01599999999999998
0.03899999999999998
0.08100000000000003
-0.009000000000000011
0.04399999999999997
0.002000000000000001
-0.027999999999999997
-0.08100000000000002
0.05299999999999998
0.039000000000000014
-0.030000000000000016
-0.11399999999999991
-0.0030000000000000053
-0.031999999999999994
