-0.002
-0.008999999999999998
-0.006
-0.034999999999999996
0.039999999999999994
0.0020000000000000018
0.075
0.035
0.014000000000000005
0.025
0.019999999999999997
0.03599999999999999
-0.011999999999999997
0.05800000000000001
-0.02500000000000001
0.007000000000000009
0.031000000000000007
-0.0010000000000000018
0.0020000000000000018
0.0029999999999999975
-0.026999999999999993
0.023000000000000003
0.016000000000000007
-9.999999999999992E-4
-0.07
-0.013999999999999999
-0.04000000000000001
-0.032
-0.04999999999999999
-0.02300000000000001
0.0010000000000000018
0.024000000000000004
0.03999999999999998
0.020999999999999994
0.028000000000000008
0.030000000000000006
0.014000000000000005
0.010999999999999998
0.011000000000000003
0.032
0.015999999999999993
0.017
-0.03
-0.045
-0.026000000000000002
-0.06599999999999999
0.013000000000000008
0.023
0.033
-0.021
0.026999999999999996
0.040000000000000015
0.03200000000000001
-0.027000000000000003
0.0030000000000000035
-0.04799999999999998
-0.012
0.03900000000000001
0.023000000000000013
0.05799999999999999
-0.018000000000000002
-8.673617379884035E-19
-0.034
0.02499999999999999
0.04
-0.06000000000000001
0.016000000000000004
-0.013000000000000001
0.031000000000000003
-0.03200000000000001
-0.016000000000000004
-0.02300000000000001
-0.030999999999999986
-0.05200000000000001
-0.006
-0.003999999999999998
0.019999999999999993
0.03499999999999999
0.043
0.05299999999999998
-0.004000000000000002
0.018000000000000002
-0.048
0.03900000000000001
0.0029999999999999966
-0.002000000000000007
-0.05699999999999998
-0.04899999999999998
-0.015999999999999993
-0.016000000000000007
0.0029999999999999983
-0.012
0.019000000000000003
0.004000000000000002
-0.016
-0.034
-0.025000000000000012
-0.027999999999999994
-0.03699999999999999
-0.044000000000000004
-0.05800000000000002
-0.02099999999999999
-0.010000000000000005
-0.044000000000000004
-0.049999999999999996
-0.008000000000000004
