0.001
-0.016
0.006
-0.027999999999999997
-0.02500000000000001
-0.018999999999999996
-0.036000000000000004
0.001
0.013000000000000001
0.030000000000000002
-0.025
-0.04400000000000001
-0.04200000000000001
-9.999999999999948E-4
-0.031000000000000007
-0.017999999999999995
-0.029
-0.022000000000000002
0.063
0.038000000000000006
-0.029000000000000015
-0.001
-0.0029999999999999966
-0.004
0.014999999999999993
-0.021999999999999992
0.003999999999999996
-0.018000000000000006
-0.016
-0.010000000000000009
0.012
-0.016000000000000007
0.04
0.006000000000000002
0.009000000000000001
-0.009000000000000001
-0.04999999999999998
-0.061000000000000006
-0.013999999999999999
-0.06300000000000001
0.026000000000000002
-0.018000000000000002
-0.0019999999999999957
0.018000000000000006
0.009999999999999998
-0.012000000000000004
-0.059
-0.08500000000000002
-0.09
0.088
0.02999999999999999
0.028000000000000004
0.007999999999999998
0.015999999999999993
0.022999999999999993
-0.003999999999999998
0.03800000000000001
-0.001
0.02099999999999999
0.046
0.02300000000000001
-0.034
0.012000000000000007
2.6020852139652106E-18
-0.027999999999999997
0.02
0.010000000000000002
0.0010000000000000052
0.019000000000000003
-0.011000000000000005
0.04899999999999999
0.025999999999999995
0.008000000000000004
0.018999999999999993
-0.039000000000000014
0.030000000000000002
-0.021000000000000005
-0.04099999999999998
0.016999999999999994
-0.029
0.016000000000000007
-0.005000000000000004
-0.0010000000000000009
0.022000000000000006
0.022999999999999993
0.03
0.048
0.017999999999999995
-0.02600000000000001
-0.10499999999999998
-0.031
0.01800000000000001
-0.022000000000000013
9.999999999999966E-4
-0.014999999999999996
-0.02799999999999999
0.013000000000000001
-0.03200000000000001
-0.026000000000000002
0.014
0.017000000000000005
0.028
0.012999999999999998
0.04000000000000001
-0.0030000000000000027
-0.03500000000000002
0.023
0.008999999999999996
0.001
-0.020000000000000004
-0.004000000000000002
-0.007000000000000002
-0.034
0.033999999999999996
0.016
0.014000000000000002
-0.016000000000000007
-0.019
0.03700000000000001
0.0020000000000000035
0.026999999999999996
