0.002
-0.005
-0.002
-0.002000000000000001
-0.020000000000000004
-0.006
-0.008
0.003
0.003
0.0010000000000000009
-2.6020852139652106E-18
-0.013
-0.016
0.0
0.002
-0.003
0.011
0.022000000000000002
0.007
-0.002
-0.002
0.002000000000000001
-0.004
-0.01
-0.011000000000000001
-0.012
-0.026000000000000002
-0.025
-0.002999999999999999
0.003
0.002
-0.008
-0.008
0.003
0.014000000000000002
-0.005
0.011999999999999999
0.003000000000000001
0.004000000000000001
-0.008
0.008
0.007
-0.004
-0.005
-0.016
-0.009000000000000001
-0.023
0.001
-0.002
-0.012
-0.012000000000000002
0.015
0.0
0.0
0.006000000000000002
0.005
-0.006
-0.006999999999999999
-0.016999999999999998
-0.002
-0.011
0.02099999999999999
0.009
-0.002
0.012
-0.003
0.0
-0.006
0.007000000000000002
-0.006
-0.001
0.007000000000000002
-0.004
0.006
-0.003
0.009000000000000001
-0.025000000000000005
-0.024000000000000004
0.011
-0.006
-0.006999999999999997
0.012
0.007
0.009000000000000001
0.003
-0.002
-0.011000000000000003
-0.004000000000000003
-0.016
-0.018
-0.011000000000000001
-0.012
-0.012000000000000002
-0.005
0.004
0.020000000000000004
0.006
-0.008
-0.012
-0.023
-0.014000000000000002
-0.003
0.011
0.016
0.005
-0.006
0.005000000000000001
-0.009000000000000001
-0.001
-0.013000000000000001
-0.009000000000000001
-0.005
0.007000000000000001
0.013
0.004
-0.016
-0.010000000000000002
0.0
-0.027999999999999997
-0.025
-0.036
0.0
-0.016
0.014000000000000002
0.012
0.006
-0.012999999999999998
0.0
0.011000000000000003
-0.021
-0.022000000000000002
0.008
0.004
0.007
-0.004
0.003
0.002000000000000001
0.002
0.0
-0.005
0.009000000000000001
0.004
0.004
0.008
0.004
0.001
-0.007
-0.001
0.022000000000000006
0.013000000000000001
0.014
-0.003
0.019999999999999997
0.005
0.004
-0.013000000000000001
-0.004
0.001
0.018000000000000002
0.012
0.011
0.008
0.008
0.014
-0.002
0.0
-0.002
-0.0069999999999999975
0.009000000000000001
0.023000000000000007
0.009999999999999998
0.007000000000000001
-0.001
0.001
0.008
0.0
-0.003
0.002
-0.012
0.012000000000000002
-0.004
0.006999999999999999
0.026000000000000002
0.008
0.02500000000000001
0.006
8.673617379884035E-19
0.003
0.003
0.017
-0.004000000000000001
-0.014
0.007000000000000001
-0.009999999999999998
0.009000000000000001
-0.004000000000000001
0.0
0.005
-0.004000000000000001
0.008
-0.011000000000000001
0.002
-0.003000000000000001
0.002
-0.011000000000000001
0.016
0.014000000000000005
-0.003
-0.002
-0.007000000000000001
0.015000000000000003
-0.016
0.019
0.013000000000000001
-0.013000000000000001
0.004
-0.006
0.001
0.002000000000000001
-0.008
0.008
-0.01
-0.006999999999999999
-0.002
0.006
0.01
0.018000000000000002
0.011000000000000001
0.010000000000000002
-0.012000000000000004
0.008999999999999998
0.011000000000000003
-0.004
0.021000000000000005
0.003
0.007
0.006
0.008
0.001
0.011000000000000001
0.003
0.008999999999999998
-0.008
0.004000000000000001
-0.005000000000000001
-0.001
0.006
0.014000000000000002
-0.013000000000000001
-0.005
-0.013000000000000001
0.011000000000000001
-0.004000000000000003
-0.018000000000000002
-0.016
-0.012
0.013000000000000001
-0.004
-0.011
-0.001
0.005
-0.004
0.019000000000000003
0.005
-0.005999999999999999
0.012
0.009000000000000001
-0.006999999999999999
-0.003000000000000001
-0.008
-0.004
0.002
0.013
0.008
-0.020000000000000004
-0.012
0.0
0.001
0.003
-0.018000000000000002
-0.004
-0.009000000000000001
-0.002
-0.007999999999999998
0.002000000000000001
0.006
-0.001
0.008999999999999998
-0.001
-0.012999999999999998
0.0
-0.002
0.008000000000000002
-0.009999999999999998
0.003
0.006000000000000001
0.008
0.009000000000000001
0.01
0.003
-0.002
0.003
0.004
-0.007000000000000001
0.002000000000000001
0.023
0.009000000000000003
-0.019000000000000003
0.011000000000000003
-0.011
0.003
-0.003
0.001
-0.014
-0.009999999999999995
-0.025999999999999995
0.006
-0.021
0.001
0.005999999999999999
0.001
0.004
0.0
-0.007
0.003000000000000001
-0.006
0.003
-0.010000000000000002
-0.001
-0.002
0.008
0.004000000000000001
-0.002
-9.999999999999992E-4
-0.009000000000000001
-0.02
-0.014
-0.008
-0.008
-0.018
-0.011000000000000003
-0.007000000000000001
0.001
0.002
0.0
0.003000000000000001
-0.011000000000000001
-0.012
-0.01
-0.016
-0.004
