0.0
0.013999999999999999
0.004
-0.028
-0.004
0.013999999999999999
0.006000000000000001
-0.004999999999999998
0.017
-0.024
-0.011999999999999997
0.014000000000000002
-0.009000000000000001
-0.022000000000000006
-0.024000000000000004
0.026000000000000006
-0.015000000000000003
-0.004
-0.002000000000000001
0.03900000000000001
-0.03200000000000001
0.005
-0.014999999999999998
0.036
-0.013000000000000003
0.008000000000000004
0.020999999999999998
-0.03399999999999999
-0.0019999999999999966
-0.03
-0.033
-0.017
-0.011999999999999997
-0.025
-0.051000000000000004
-0.024
-0.007000000000000002
0.008
-0.028999999999999998
0.03699999999999999
-0.0029999999999999975
0.009
0.004
-0.001
-0.009000000000000003
0.008
0.010000000000000002
0.013000000000000001
0.01400000000000001
-0.02
0.008
-0.02500000000000001
0.011
0.005
-0.002000000000000001
-0.02899999999999999
-0.003
-0.013
-0.004000000000000001
-0.022999999999999993
-0.049000000000000016
0.0030000000000000027
0.028
-0.001999999999999999
0.037000000000000005
-0.04900000000000001
-0.013000000000000001
-0.009000000000000005
0.002
-0.021000000000000008
-0.036000000000000004
0.03500000000000001
-0.008
-0.023
-0.006
0.031
0.05900000000000001
0.026000000000000002
0.026000000000000002
0.018000000000000002
0.002
0.03300000000000001
-0.007000000000000001
0.02899999999999999
-0.008
0.012000000000000004
-0.004
0.025999999999999995
0.008999999999999998
-0.021000000000000005
-9.999999999999992E-4
0.007000000000000001
0.013999999999999997
0.002
0.005999999999999998
0.012
0.006
0.005
-1.734723475976807E-18
0.005
0.018999999999999996
-0.023000000000000003
-0.022999999999999996
0.012999999999999996
0.021000000000000005
0.024999999999999994
-0.003999999999999998
0.010000000000000002
0.023999999999999994
0.028999999999999998
0.011
-0.03599999999999999
-0.015000000000000003
0.022000000000000006
0.002
-0.017
-0.004
-0.012999999999999996
0.027000000000000003
-0.015000000000000001
-0.007000000000000001
-0.03299999999999999
-0.007999999999999998
-0.005
-0.0069999999999999975
0.0010000000000000009
0.008000000000000002
-0.019000000000000003
0.007999999999999997
-0.019999999999999997
0.009000000000000001
0.015
-0.013000000000000001
0.026000000000000002
0.003
-0.016000000000000007
0.018000000000000002
0.033
0.021999999999999995
-0.016000000000000004
-0.012000000000000002
0.026000000000000002
0.017
0.044
0.011999999999999997
8.673617379884035E-19
-0.019000000000000003
0.008
0.019000000000000003
-0.004000000000000001
-0.002
0.025
-0.017
-0.021000000000000005
8.673617379884035E-19
-0.013999999999999999
-0.013000000000000001
-0.029000000000000005
0.010000000000000004
-0.002
-0.008000000000000004
0.022000000000000002
0.018000000000000002
8.673617379884035E-19
-8.673617379884035E-19
-0.019000000000000003
-0.01800000000000001
-0.025999999999999995
-0.030999999999999982
-0.017999999999999995
-0.017000000000000005
-0.028000000000000008
-0.041
-0.014999999999999998
-0.023
-0.010999999999999996
