0.001
0.004
0.008
-0.021
-0.033
-0.028999999999999998
-0.015000000000000003
-0.001999999999999999
0.003000000000000002
0.025999999999999995
0.022000000000000006
-0.002
0.008000000000000004
0.0
0.009999999999999995
0.0029999999999999983
0.011000000000000003
-0.027000000000000003
-0.021999999999999992
-0.029
-0.022
-0.008
0.007
0.028999999999999998
-0.002
-0.011000000000000003
-0.026000000000000002
-0.025
-0.028999999999999995
0.005000000000000001
-0.006999999999999998
-0.014999999999999994
-0.018999999999999993
-0.023000000000000007
-0.03499999999999999
-0.02900000000000001
-0.013999999999999999
-0.001999999999999993
-0.002000000000000001
0.008
-0.012999999999999996
-0.008
-0.006
0.038
0.016999999999999998
0.032
0.007
0.023
0.021999999999999995
0.003000000000000001
0.019999999999999993
-0.004000000000000007
0.013000000000000005
4.336808689942018E-18
0.006000000000000002
-0.023
0.008
-0.01700000000000001
0.004
0.001999999999999999
-0.009000000000000001
0.008000000000000002
-0.017
-0.012000000000000004
0.005999999999999998
-0.013999999999999999
0.0019999999999999983
0.0060000000000000045
0.010000000000000002
0.015
0.017
-0.008
0.008999999999999998
-0.002000000000000001
-0.001999999999999999
0.013000000000000003
-0.018000000000000002
-0.0010000000000000035
-0.03899999999999999
-0.034
-0.023000000000000007
-0.0020000000000000018
0.006000000000000002
0.015000000000000003
0.03899999999999999
-0.0010000000000000035
0.039
0.022999999999999996
0.019999999999999997
0.0010000000000000018
-0.004
0.005
0.006000000000000002
-0.002
-0.06099999999999999
0.010000000000000009
0.024999999999999994
0.020000000000000007
0.034
-0.003
-0.02
-0.03300000000000001
-0.014000000000000002
0.014000000000000005
9.999999999999974E-4
-0.003999999999999997
-0.025
0.002999999999999993
0.012
0.004999999999999996
-0.008000000000000004
0.017
0.002
-0.010000000000000002
-0.02
-0.05
-0.011
0.015999999999999993
0.015000000000000008
0.0010000000000000035
-0.020999999999999998
0.02
-0.018999999999999996
-0.017
-0.013000000000000001
0.009000000000000001
0.039999999999999994
0.021000000000000005
-0.01
-0.013000000000000001
0.03499999999999999
0.003
0.011
-0.0049999999999999975
0.019
0.007
0.007000000000000001
-0.003
-0.009999999999999997
-0.012999999999999994
0.04600000000000001
0.0010000000000000018
-0.021999999999999995
-0.001
-0.009000000000000003
0.001999999999999993
-0.005000000000000004
-0.0019999999999999983
-0.031
-0.015000000000000003
-0.009000000000000001
0.021000000000000005
0.044000000000000004
0.009000000000000001
-0.02
-0.015
-0.03399999999999999
-0.026
-0.009000000000000001
-0.018000000000000006
0.005000000000000001
-0.014000000000000005
-0.02
-0.014000000000000002
0.005000000000000001
-8.673617379884035E-19
0.023000000000000003
0.027000000000000003
-0.009999999999999997
-0.008
-0.017
0.03100000000000001
-0.018999999999999993
-0.049000000000000016
-0.002999999999999999
0.020000000000000004
-0.005000000000000002
0.027
0.004
0.004999999999999997
-0.001
0.001
0.008
0.001
-0.023999999999999997
-9.999999999999992E-4
-0.025999999999999995
-0.03400000000000002
0.006999999999999996
-0.005999999999999999
0.006000000000000001
-0.018999999999999996
-0.031000000000000003
-0.015
-0.015
0.02200000000000001
0.022
0.010000000000000002
0.02
-0.002999999999999999
-0.013000000000000001
