-0.010000000000000002
-0.07599999999999996
-0.030999999999999923
-0.010000000000000061
-0.06299999999999986
-0.005000000000000038
-0.0010000000000000174
0.04200000000000008
-0.067
-0.119
0.14200000000000018
-0.014999999999999996
0.019000000000000017
-0.08400000000000016
-0.03700000000000003
0.24800000000000008
-0.1580000000000001
0.10400000000000015
0.020000000000000025
0.08200000000000002
-0.09000000000000015
0.04199999999999999
0.04699999999999997
0.02500000000000001
0.06800000000000003
-0.09399999999999976
-0.04499999999999998
-0.10900000000000004
-0.08800000000000016
-0.06500000000000009
0.12000000000000013
-0.12800000000000006
0.01900000000000001
0.008999999999999928
0.10000000000000006
-0.15899999999999997
0.07300000000000009
0.019999999999999973
0.05400000000000031
0.028
-0.16500000000000004
-0.17400000000000013
0.07199999999999995
-0.024999999999999963
-0.03800000000000015
-0.15500000000000008
0.027999999999999924
-0.004999999999999948
-0.09899999999999981
0.13200000000000017
-0.06699999999999995
0.1090000000000001
0.04200000000000003
0.054000000000000006
0.2990000000000002
0.07600000000000007
-0.15700000000000006
-0.027999999999999945
-0.2500000000000001
-0.3770000000000002
-0.09099999999999997
-0.128
0.03700000000000006
-0.07699999999999987
0.06700000000000025
0.11900000000000008
-0.03399999999999996
-0.07800000000000004
-0.006000000000000021
0.07199999999999998
0.13400000000000006
0.1600000000000001
-0.2050000000000001
0.011000000000000008
0.20400000000000018
0.05700000000000003
0.19300000000000023
0.01799999999999998
0.11400000000000002
-0.02900000000000003
0.056000000000000015
-0.12999999999999998
0.09100000000000003
0.02400000000000009
-0.16900000000000004
-0.061999999999999986
0.1370000000000001
-0.12199999999999998
-0.007999999999999955
0.14900000000000013
0.057000000000000196
-0.12799999999999995
-0.15200000000000014
-9.99999999999994E-4
0.046
0.18800000000000008
-0.139
-0.12199999999999989
-0.0390000000000001
0.14300000000000018
-0.1910000000000001
-0.02599999999999976
0.19700000000000017
0.0460000000000001
0.06300000000000001
-0.011000000000000017
-0.05099999999999997
0.10700000000000018
0.10500000000000004
0.0920000000000004
-0.038999999999999924
0.024999999999999897
-0.010000000000000009
-0.033000000000000106
-0.04499999999999992
-0.01400000000000003
-0.154
0.028000000000000008
0.009999999999999985
-0.2890000000000002
-0.08700000000000002
-0.18800000000000008
0.03500000000000007
0.05300000000000013
-0.30300000000000016
-0.096
0.15500000000000014
0.07300000000000013
-0.03599999999999996
-0.028999999999999953
-0.12099999999999995
0.020999999999999974
0.05300000000000013
-0.015999999999999986
0.040999999999999995
0.03600000000000006
0.15500000000000022
0.037000000000000005
0.023999999999999987
0.05500000000000002
0.039000000000000194
-0.07299999999999984
-0.08499999999999952
-0.06900000000000003
0.018000000000000006
0.07699999999999999
0.040000000000000015
-0.017000000000000022
-0.08799999999999986
-0.047999999999999904
-0.0880000000000001
0.15900000000000003
-0.27700000000000014
0.07200000000000005
0.01699999999999996
0.03700000000000011
0.14600000000000016
0.040000000000000056
-0.026999999999999986
-0.07200000000000001
0.06800000000000006
0.18300000000000022
-0.005999999999999994
-0.21500000000000005
0.004000000000000046
-0.02899999999999984
0.0010000000000000451
-0.04499999999999997
-0.06299999999999983
