0.007
-0.03200000000000001
0.033999999999999975
-0.04500000000000001
-0.05900000000000003
-0.018000000000000006
0.04900000000000004
0.019999999999999945
0.08400000000000005
0.09799999999999999
-0.022000000000000058
0.030000000000000006
-0.012999999999999984
-0.11799999999999997
0.05600000000000003
0.008000000000000002
0.023999999999999987
-0.03600000000000002
-0.0019999999999999844
-0.13300000000000003
-0.009000000000000015
-0.069
-0.16699999999999998
-0.1419999999999999
-0.163
0.006000000000000005
0.06699999999999998
0.037000000000000026
-0.10800000000000003
0.00900000000000003
0.07400000000000001
0.065
0.06699999999999999
0.08000000000000002
0.005999999999999995
0.060000000000000005
-0.11299999999999996
0.12199999999999994
0.01099999999999998
0.08700000000000001
0.10200000000000002
-0.03799999999999999
0.07700000000000001
0.03199999999999998
0.122
-0.051000000000000045
-0.07299999999999998
-0.10700000000000001
-0.005999999999999995
-0.062
0.08200000000000002
0.03799999999999997
0.018999999999999982
0.063
0.008000000000000007
0.03900000000000004
-0.0069999999999999915
-0.01600000000000002
-0.007999999999999983
-0.13299999999999995
-0.12199999999999993
