0.007
-0.01799999999999999
-9.999999999999879E-4
-0.029000000000000026
0.030000000000000002
-0.024999999999999994
0.030999999999999993
0.032000000000000015
-0.004000000000000017
0.0030000000000000027
0.04199999999999998
-0.031000000000000003
-0.04900000000000001
-0.03600000000000002
-0.04000000000000001
0.02400000000000001
-0.03400000000000001
0.042999999999999976
-0.038
0.024999999999999963
-0.028999999999999977
-3.469446951953614E-18
-0.02699999999999996
0.018000000000000006
0.04999999999999999
0.07800000000000004
0.02500000000000002
-0.06399999999999996
-0.06400000000000002
-0.013999999999999995
0.02399999999999999
0.012000000000000007
-0.068
-0.03900000000000001
0.008000000000000009
-0.034999999999999955
-0.06299999999999999
0.051000000000000004
0.11100000000000006
-0.010000000000000002
-0.03099999999999998
-0.025999999999999968
0.05899999999999999
-0.028000000000000014
0.033
-0.12500000000000003
0.05799999999999999
-0.018000000000000006
-0.015000000000000034
-0.02500000000000001
-0.028999999999999998
-0.005999999999999996
0.023000000000000017
-0.033000000000000015
0.09900000000000003
-0.002000000000000007
-0.04799999999999999
-0.06699999999999995
-0.11799999999999994
-0.13999999999999999
-0.15300000000000008
-0.10999999999999999
0.022000000000000002
-0.04699999999999993
0.047000000000000014
-0.018
-0.08800000000000002
-0.004000000000000003
-0.031999999999999966
-0.0019999999999999914
0.10800000000000001
0.047000000000000014
-0.08400000000000005
0.04299999999999998
0.14400000000000004
0.05900000000000008
0.08100000000000002
0.08000000000000004
-0.014000000000000021
-0.07999999999999999
0.08900000000000005
-0.09
0.06999999999999991
0.049999999999999996
-0.015000000000000032
3.0357660829594124E-17
0.05599999999999999
-0.04800000000000002
-0.006999999999999987
0.12900000000000011
0.006999999999999996
0.004000000000000004
-0.03700000000000004
-0.02399999999999998
0.07600000000000001
0.12900000000000006
-0.16800000000000007
-0.135
-0.016999999999999998
0.09700000000000006
-0.0689999999999999
-0.044999999999999936
0.04499999999999983
0.0030000000000000035
0.07600000000000004
0.033999999999999996
-0.05199999999999991
0.075
0.07800000000000007
-0.004000000000000005
-0.013000000000000006
-0.024000000000000025
-0.0010000000000000035
-0.02699999999999999
0.016000000000000004
-0.031000000000000017
-0.09100000000000001
-0.013999999999999992
0.033
-0.11800000000000005
-0.03899999999999999
-0.08199999999999999
-0.007000000000000011
0.07000000000000002
-0.068
-0.02699999999999997
0.027
0.055999999999999994
-0.009000000000000015
-0.023000000000000048
-0.054999999999999986
-0.012000000000000005
0.010999999999999992
-0.026999999999999993
0.01000000000000002
-0.0019999999999999827
0.11200000000000004
0.012000000000000012
0.004000000000000011
0.06999999999999998
0.01200000000000001
0.003999999999999991
-0.06499999999999986
-0.03399999999999999
0.07500000000000002
0.024000000000000007
0.027000000000000024
-0.02000000000000002
-0.07799999999999999
-0.024000000000000042
0.010999999999999989
0.010000000000000009
-0.15000000000000005
0.05499999999999999
-0.024000000000000004
0.015000000000000001
0.07300000000000006
-0.023000000000000003
-0.020999999999999998
-0.03799999999999997
0.009999999999999993
0.08600000000000002
-0.013
-0.08600000000000002
-0.09200000000000004
0.04700000000000003
0.05100000000000003
0.02599999999999999
-0.06999999999999997
