0.005
0.04800000000000001
-9.99999999999994E-4
-0.05700000000000001
0.06200000000000002
-0.086
0.051
0.016000000000000056
-0.017999999999999988
-0.086
-0.014999999999999986
-0.15200000000000005
-0.03599999999999999
-0.07100000000000001
-0.01999999999999999
-0.05199999999999998
-0.115
-0.00799999999999998
0.07099999999999998
-0.014999999999999989
-0.15700000000000008
-0.05300000000000007
-0.03600000000000001
0.08699999999999997
0.1
0.20500000000000002
0.129
0.05500000000000004
0.2240000000000001
-0.10900000000000001
0.04499999999999997
-0.11300000000000011
-0.003999999999999991
-0.06499999999999997
-0.052
0.10200000000000009
0.05399999999999998
0.07399999999999998
-0.13099999999999995
-0.021000000000000005
-0.12000000000000005
-0.047
-0.060999999999999985
0.05200000000000002
0.08599999999999995
0.056999999999999974
0.16600000000000004
0.10999999999999988
0.07300000000000001
0.01600000000000002
0.023000000000000013
-0.022999999999999986
-0.0019999999999999905
-0.15799999999999997
-0.031000000000000038
-0.19400000000000006
-0.07899999999999993
