0.002
0.016
0.003
-0.012999999999999998
-0.018000000000000002
-0.0069999999999999975
-0.012
-0.007
0.009
0.007
-0.009999999999999997
-0.013000000000000001
-0.016
-0.04100000000000001
0.018000000000000013
-0.01
0.008
0.016
0.001
-0.019999999999999997
0.005
-0.002
0.005000000000000003
-0.003000000000000001
-0.002
-0.007
-0.010000000000000002
0.004
-0.009000000000000001
-0.005000000000000004
0.007
0.024000000000000014
0.022
0.022
0.010000000000000002
0.008000000000000002
0.0040000000000000036
-0.010000000000000002
-0.016
-0.021
-0.03799999999999999
0.003
-0.005000000000000002
-0.013000000000000005
0.001000000000000007
-0.0069999999999999975
0.003999999999999999
-0.014999999999999994
-0.011000000000000005
0.031999999999999994
-0.0020000000000000018
0.011000000000000006
0.005999999999999997
-0.013000000000000001
0.021
0.004
0.017000000000000008
-0.003
0.006999999999999997
0.008
-0.005
0.002999999999999999
-0.013
0.012
0.029999999999999995
0.006999999999999993
-0.011000000000000003
0.015999999999999997
0.04199999999999999
0.027000000000000007
-0.009999999999999998
0.008
-0.025
-0.018
-0.019
0.016000000000000004
-0.008
0.006
0.01299999999999999
0.0020000000000000018
0.004
0.002
0.007000000000000001
0.03799999999999999
-0.026000000000000002
-0.028999999999999998
-0.032
-0.03199999999999999
-0.03199999999999999
-0.061999999999999986
0.020000000000000004
-0.027
0.003
0.028000000000000014
0.016
0.036000000000000004
0.009000000000000001
-0.012000000000000007
0.007
0.0029999999999999983
0.053000000000000005
0.016
0.008999999999999998
0.005
0.005999999999999993
0.0010000000000000009
-0.012
-0.004
-0.027000000000000003
-0.018000000000000002
-0.019
-0.014999999999999996
0.023000000000000003
-0.005000000000000004
0.014000000000000002
0.027999999999999994
0.011
0.017
-1.734723475976807E-18
-0.018999999999999996
-0.047999999999999994
-0.032
-0.011999999999999999
-0.001
-0.008000000000000004
-0.002
-0.001
0.0
0.020000000000000004
-0.006000000000000001
-0.027
-0.035
-0.012
0.010999999999999998
-0.002
0.007000000000000001
-0.007000000000000001
-0.01
-0.002
0.02
0.006000000000000001
-0.021
0.005
-0.007
-0.018000000000000002
-0.029999999999999985
-0.019
-0.0060000000000000045
-0.001
-0.03799999999999999
0.018000000000000002
0.020000000000000004
0.012000000000000002
-0.006
0.012
0.01800000000000001
-0.011000000000000001
0.009000000000000001
0.022000000000000002
0.035
-0.01900000000000001
0.027999999999999997
-0.006999999999999995
-0.007000000000000002
0.0
0.025
0.024999999999999998
-0.006000000000000001
-0.014000000000000002
0.003
0.01
-0.008999999999999996
-0.007999999999999998
0.017
0.0
0.005
0.014000000000000002
0.010000000000000002
-0.009000000000000001
-0.001
0.004
0.006
-0.008
-0.008000000000000004
0.04699999999999999
0.024
-0.01
0.015000000000000001
0.016999999999999998
-0.026999999999999996
-3.469446951953614E-18
-0.011
0.002
-0.005
-0.023
-0.019000000000000013
-0.048999999999999995
-0.034
-0.036
-0.03899999999999999
-0.024000000000000004
-0.003999999999999998
-0.009
0.008000000000000004
-0.001
0.004
0.01
0.007
0.0029999999999999983
0.003
0.024
