0.001
-0.09400000000000003
-0.08600000000000001
-0.026000000000000044
-0.02900000000000005
0.016999999999999967
0.008000000000000018
0.07800000000000004
-0.007000000000000003
-0.07399999999999993
0.020999999999999994
-0.004000000000000029
0.1060000000000001
0.003000000000000014
0.0019999999999999888
0.10900000000000004
-0.11000000000000001
0.06600000000000007
0.03200000000000003
0.07600000000000001
-0.035000000000000066
0.042000000000000016
0.0019999999999999584
0.012999999999999998
-0.02099999999999998
0.003000000000000041
0.018999999999999993
-0.06800000000000002
-0.061000000000000026
9.999999999999966E-4
0.07600000000000004
-0.07
0.015000000000000022
0.07099999999999992
-0.005000000000000007
-0.10299999999999997
0.04900000000000001
-0.010000000000000064
0.05100000000000009
0.04899999999999998
-0.04099999999999998
-0.095
0.07899999999999999
-0.024000000000000014
-0.03000000000000005
-0.16500000000000006
0.020999999999999987
0.03599999999999999
-0.095
-0.0419999999999999
-0.06999999999999992
0.1310000000000001
0.017000000000000026
-0.07099999999999998
0.10000000000000003
0.08900000000000004
-0.04499999999999996
0.04400000000000002
-0.16199999999999998
-0.21
-0.07200000000000001
-0.017000000000000036
0.06400000000000003
0.007999999999999986
0.038999999999999986
0.051
-0.071
-0.10600000000000001
-0.0039999999999999775
9.999999999999835E-4
0.05399999999999999
0.09200000000000003
-0.11200000000000002
0.013999999999999985
0.06
-0.026000000000000002
0.08500000000000009
-0.016999999999999977
0.03999999999999999
-0.055999999999999994
0.0029999999999999966
-0.020999999999999994
0.013999999999999974
0.07000000000000008
-0.02800000000000001
-0.060999999999999936
0.064
-0.005999999999999987
-0.010000000000000028
0.10600000000000007
0.06199999999999997
-0.07799999999999996
-0.020000000000000025
-0.038
0.06700000000000007
0.11600000000000008
-0.14800000000000002
-0.16000000000000003
-0.01800000000000001
0.085
-0.144
0.004999999999999986
0.15800000000000008
-0.009000000000000001
-0.002999999999999993
0.04100000000000001
-0.05099999999999996
-0.014000000000000023
0.036000000000000094
0.09500000000000007
0.002999999999999955
-0.004999999999999984
0.039999999999999966
-0.054000000000000034
-0.05400000000000001
0.006
-0.03199999999999999
0.003000000000000002
-0.03899999999999994
-0.12300000000000003
-0.091
-0.060000000000000026
0.056
-0.025999999999999995
-0.16100000000000006
-0.11200000000000002
0.041000000000000064
0.11500000000000003
0.03599999999999999
-0.04999999999999994
-0.089
0.03099999999999998
-0.03799999999999995
0.028999999999999995
-0.01800000000000002
-0.007999999999999967
0.10100000000000003
0.05699999999999998
0.014000000000000004
0.09800000000000006
0.03900000000000004
-0.068
-0.014999999999999984
-0.028000000000000008
0.02200000000000001
0.07600000000000003
0.05899999999999994
-0.013000000000000025
-0.049999999999999954
-0.0819999999999999
-0.05999999999999998
0.0010000000000000096
-0.11599999999999999
0.02599999999999996
0.07500000000000007
0.07500000000000001
-0.025
-0.005000000000000002
-0.055000000000000035
-0.09
0.026999999999999975
0.11200000000000013
-0.03599999999999988
-0.053999999999999965
0.07200000000000001
-0.023999999999999987
-0.026000000000000002
-0.03699999999999998
-0.08299999999999996
