0.002
-0.022000000000000002
-0.021
-0.018999999999999996
0.002
-0.011
-0.023000000000000007
-0.027000000000000003
0.0
0.002
-0.02
-0.013000000000000003
0.007
0.011
0.006000000000000002
0.005
-0.046999999999999986
0.019000000000000003
0.012
-0.006
0.010000000000000005
0.026000000000000006
0.015000000000000001
-0.0029999999999999966
0.016
-0.011000000000000001
-1.734723475976807E-18
-0.008000000000000002
-0.004
1.734723475976807E-18
-0.010000000000000002
0.003
0.017
0.006
0.003000000000000001
0.013000000000000001
0.009999999999999998
0.013999999999999995
0.005
-0.02600000000000001
-0.030999999999999996
-0.009000000000000001
-0.009000000000000001
0.014000000000000002
-0.004
-0.009
-0.021000000000000008
-0.010000000000000002
-0.061000000000000006
-9.999999999999992E-4
0.003
-0.0020000000000000018
-0.0010000000000000009
-0.019
-0.004
0.009999999999999998
-0.008
0.014999999999999998
-0.027999999999999997
-0.033
-0.013000000000000001
0.004
-0.013000000000000001
-0.006
-0.016
-0.03899999999999999
-0.03
-0.030000000000000006
-0.016
-0.014
-0.001
0.0
-0.02400000000000001
-0.007999999999999997
0.025
-0.006
-0.018000000000000002
-0.005
-0.07600000000000001
0.0020000000000000018
0.014
-0.006
0.008000000000000004
-0.012000000000000002
-0.019000000000000003
0.013000000000000003
0.036000000000000004
0.005
0.024000000000000007
0.001
0.025000000000000005
0.005
0.005000000000000001
0.013000000000000001
0.005
-0.008
0.008
0.009000000000000001
0.038000000000000006
0.012
0.0
0.028999999999999998
0.0
0.015
0.032
0.024
0.005
-0.013999999999999999
-0.015999999999999997
0.016
0.031000000000000007
0.028000000000000008
0.0
0.039
0.001
0.016
-0.026000000000000002
0.014
0.01799999999999999
0.014
0.023000000000000007
0.009000000000000001
0.017999999999999995
0.022000000000000006
0.011
0.005
0.021
-0.028
-0.023000000000000007
0.006999999999999999
-0.010999999999999996
-0.009
0.038000000000000006
-0.013000000000000001
-0.012000000000000002
-0.016
-0.021
-0.009000000000000001
-0.018999999999999993
0.032
0.008
0.009000000000000001
0.017999999999999995
-0.012
-0.013000000000000003
0.017999999999999995
-0.022000000000000002
0.001
0.0029999999999999975
0.009
-0.019999999999999997
0.013000000000000001
-0.008999999999999998
-0.008000000000000004
0.004000000000000001
-0.031
-0.021000000000000005
0.0029999999999999983
-0.007000000000000002
-0.020000000000000004
0.029
-0.022999999999999993
-0.016
0.031
0.028999999999999998
-0.010000000000000002
0.03499999999999998
0.013999999999999997
-0.002
-0.026000000000000002
0.019
-0.022999999999999996
0.019000000000000003
-0.0019999999999999966
-0.003
0.016
0.03300000000000001
0.030000000000000006
0.034999999999999996
-0.027999999999999994
0.004
0.038000000000000006
0.02600000000000001
-0.023
-0.015
0.006000000000000001
-0.025
0.011
-0.017999999999999995
0.019000000000000006
-0.009000000000000001
-0.004000000000000001
0.007000000000000001
0.027999999999999997
0.019000000000000003
0.014000000000000002
-0.014000000000000005
-0.001
0.008
-0.002
0.001
-0.019000000000000006
-0.021
0.027000000000000007
-0.02399999999999999
-0.017
-0.012
-0.006
-0.002
-0.030000000000000002
-0.017
