0.001
-9.999999999999992E-4
-0.007
0.014
0.016
0.002
-0.003999999999999998
0.011
0.028999999999999995
0.007000000000000002
-0.03199999999999999
-0.03499999999999999
0.011000000000000001
0.008999999999999989
0.002999999999999995
-0.015000000000000005
0.004
0.024999999999999994
0.033
0.009000000000000003
0.014
0.005999999999999998
-0.009000000000000001
0.012000000000000002
-0.016
0.009000000000000003
-0.0020000000000000018
-0.011
-0.004000000000000005
0.013
0.019000000000000003
0.025999999999999995
3.469446951953614E-18
0.022
0.021999999999999992
0.021999999999999995
-0.001999999999999999
0.015000000000000001
-0.017000000000000008
0.024
-0.0030000000000000027
-0.014000000000000002
0.004
-0.010000000000000004
0.009999999999999997
0.06200000000000001
-0.007
-0.016000000000000004
0.03799999999999997
0.015000000000000001
0.037000000000000005
0.0019999999999999974
-0.01900000000000001
-0.034999999999999996
-0.023000000000000013
-0.03899999999999999
-0.040999999999999995
-0.009000000000000001
-0.046999999999999986
-0.061
-0.03799999999999999
-0.029999999999999995
0.014000000000000004
-0.020999999999999994
0.016000000000000004
-0.004
0.023999999999999987
0.002
-0.02700000000000001
-0.018000000000000002
0.004999999999999996
0.043999999999999984
-0.00999999999999999
0.050000000000000024
0.013999999999999997
-0.006000000000000002
-0.02099999999999999
0.009999999999999998
-0.016
-0.020999999999999998
-0.024000000000000007
-0.013999999999999993
0.03900000000000002
-0.010999999999999996
1.734723475976807E-18
0.04299999999999998
0.006
0.043999999999999984
-0.0029999999999999975
-0.019
-0.026999999999999986
-0.056
-0.03900000000000001
-0.030000000000000002
0.033
0.008
0.013000000000000012
0.046999999999999986
0.016000000000000004
0.013999999999999997
-0.049
-0.012000000000000004
-9.999999999999992E-4
0.0060000000000000105
-0.036000000000000004
0.005000000000000001
-9.999999999999992E-4
0.017
0.008000000000000002
-0.009000000000000001
-0.004
0.003999999999999999
0.009000000000000001
0.012
-0.02600000000000001
-0.021999999999999995
-0.029000000000000005
-0.020000000000000004
-0.021
-0.01999999999999999
-0.023999999999999997
0.015999999999999993
0.024
0.001
0.027
0.006
0.007000000000000003
-0.012999999999999998
0.033
0.028999999999999998
0.005999999999999999
0.008
-0.0010000000000000044
0.003
0.013999999999999997
0.002
0.030999999999999993
0.010999999999999996
0.01
-0.017
0.004000000000000004
-0.003
-0.023000000000000007
-0.024999999999999994
-0.016
-0.027999999999999994
-0.030999999999999993
-0.021999999999999985
-0.02800000000000001
-0.013999999999999997
0.015000000000000001
