0.001
-0.009999999999999998
-0.006999999999999999
-0.006999999999999998
-0.004
0.004000000000000001
0.006000000000000001
-0.009000000000000001
-0.001
0.012
0.023000000000000003
0.023
0.034999999999999996
0.028000000000000004
0.019000000000000003
0.014
0.017
0.013000000000000001
0.008999999999999998
-0.013000000000000005
-0.006
-0.010000000000000002
-0.003
-0.012
-0.01
-0.007
-0.019
-0.003000000000000001
0.010000000000000002
-0.002
-0.002
0.006
0.005000000000000001
-0.006000000000000001
0.013999999999999999
0.025
0.007000000000000001
0.018000000000000002
-0.001
0.009000000000000001
0.0
0.004
-0.010000000000000002
0.0
0.006
-0.011000000000000001
-0.012
0.01
0.019000000000000003
0.031000000000000007
-0.006
-0.017999999999999995
0.001
0.001
0.0
0.007
-0.006999999999999999
-0.004
-0.014000000000000002
-0.013000000000000001
-0.006
-0.007
0.015
0.012000000000000004
0.009999999999999998
0.011000000000000003
0.001
-0.012
-0.023000000000000007
-0.006999999999999999
-0.004
-0.009000000000000001
-9.999999999999983E-4
0.005999999999999998
-0.006000000000000001
-0.013000000000000001
-0.017
0.001
-0.011999999999999999
-0.013000000000000001
-0.032
-0.006
-0.006000000000000001
-0.004
0.005
0.006
0.003
0.015
0.018000000000000002
0.001
-0.011000000000000001
-0.009000000000000001
-0.011
-0.009000000000000003
0.014000000000000002
-0.018999999999999996
-0.029000000000000012
-0.022
-0.010999999999999998
-0.020000000000000004
-0.018000000000000002
0.005
-0.003000000000000001
-0.004000000000000001
0.002
0.012
-0.013000000000000001
-0.026999999999999996
0.011000000000000003
0.011000000000000003
0.001
-0.014999999999999996
0.007000000000000001
0.006
0.019999999999999997
0.018
-0.010000000000000002
-0.013000000000000001
0.008
-0.03
0.013000000000000005
0.025
0.029000000000000005
0.021
0.005
0.007000000000000002
0.019000000000000003
0.02
0.001
0.029
-0.003
0.001
0.002
-0.0069999999999999975
-0.010000000000000002
0.001
0.013000000000000003
-0.003000000000000001
0.009000000000000001
0.010000000000000002
-0.001
-0.004
-0.004000000000000001
0.01900000000000001
0.0
-0.017999999999999995
-0.029
0.008000000000000002
0.024
-0.003
-8.673617379884035E-19
0.016999999999999994
9.999999999999992E-4
0.007000000000000001
-0.013000000000000001
-0.010000000000000002
0.006000000000000002
0.015000000000000001
0.007000000000000002
-0.006
-0.028
-0.028000000000000008
-0.03699999999999999
-0.022
-0.001
-0.018
-0.025999999999999995
-0.026999999999999993
-0.015000000000000001
0.0
0.001999999999999999
0.0
9.999999999999992E-4
-0.006
-0.004
0.006
-0.004999999999999998
0.0
0.014
0.013000000000000003
0.010999999999999992
0.017000000000000008
-0.007000000000000001
1.734723475976807E-18
-9.999999999999992E-4
0.002000000000000001
-0.007
-0.005000000000000001
-0.013000000000000003
-0.018000000000000002
0.013000000000000005
0.007
-0.011000000000000003
-0.008
0.003999999999999999
-0.005000000000000001
-0.007
0.007
0.009000000000000001
0.009000000000000001
0.002
0.0
0.011
0.023000000000000007
0.023
0.009000000000000001
-0.029999999999999995
-0.023
-0.014
0.012
-0.001
0.013000000000000003
0.017000000000000005
0.006999999999999999
-0.006
-0.003
0.015999999999999997
0.001
-0.001
0.007000000000000001
0.005999999999999999
0.001
-0.012
0.009000000000000001
0.003
-0.004
0.024000000000000004
0.002
-0.002
0.019
0.014000000000000002
0.02
0.003
0.006000000000000001
0.007
-0.014
0.003000000000000001
-0.013999999999999999
0.010000000000000002
-0.011
0.008
0.004
-0.006
-0.011000000000000001
-0.005999999999999999
-0.002
-0.005
-0.007000000000000001
-0.011999999999999999
-0.002000000000000001
0.002
0.002
-0.004999999999999999
-0.005
-0.010000000000000002
0.020000000000000007
0.004999999999999998
0.004000000000000001
-0.004
0.002000000000000001
-0.007000000000000001
0.0
0.001
-0.01
-0.010000000000000002
-0.028999999999999998
-0.018
-0.009999999999999998
-0.003
0.0
-0.011
-0.009999999999999998
-0.013000000000000001
0.0
-0.006
0.004000000000000001
-0.008000000000000002
-0.009000000000000001
-0.005
-0.02
-0.023000000000000003
