0.003
-0.020000000000000004
-0.023000000000000003
-0.027999999999999997
-0.052000000000000005
-0.016
0.003000000000000001
-0.021
0.04800000000000001
0.013999999999999999
0.014999999999999996
0.03900000000000001
0.036000000000000004
-0.021000000000000005
-0.025
-0.008
-0.028
-0.015999999999999997
-0.008999999999999994
0.005000000000000002
-0.024000000000000004
0.026
-0.002999999999999999
0.03899999999999999
-0.034
-0.021000000000000005
-0.023
-0.035
-0.003000000000000001
0.0020000000000000026
-0.025
-0.003000000000000002
-0.006000000000000001
0.022999999999999996
0.042
0.0
0.009000000000000005
0.012000000000000004
0.003999999999999997
-0.008000000000000004
0.019000000000000003
-0.009000000000000001
0.014999999999999996
0.023999999999999994
0.0
-0.016
-0.015000000000000001
0.006000000000000001
-0.023999999999999987
-0.002
0.031000000000000014
-0.011000000000000003
0.005000000000000002
-0.015000000000000001
0.03400000000000001
0.020000000000000004
-0.0060000000000000045
-0.048999999999999995
-0.040999999999999995
-0.04400000000000002
-0.03399999999999999
0.047000000000000014
0.037000000000000005
0.026000000000000006
0.031000000000000003
0.024000000000000004
0.021
0.006000000000000004
0.011000000000000003
-0.008
-0.017999999999999995
0.005999999999999993
0.019999999999999997
0.046000000000000006
0.07300000000000001
-0.021
-0.03900000000000001
-0.008
0.0010000000000000018
-0.066
-0.05199999999999999
0.01900000000000001
0.016
0.003999999999999996
0.012000000000000004
-0.003
-0.05099999999999999
-0.031000000000000017
0.027000000000000007
0.0019999999999999983
-0.05300000000000002
0.04000000000000001
-0.028
0.004000000000000009
0.013999999999999992
-0.022
-0.026999999999999996
-0.038
0.011000000000000001
-0.009000000000000001
-0.006
-0.001
0.003999999999999999
-0.02
-0.002999999999999993
0.013000000000000001
-0.014999999999999994
1.734723475976807E-18
0.010999999999999994
0.024
-0.010999999999999996
0.005999999999999997
-0.012999999999999998
-0.006000000000000003
0.006000000000000002
0.012999999999999992
-0.008000000000000002
0.018000000000000006
-0.012999999999999998
-0.024999999999999988
-0.02
-0.011999999999999999
-0.051
-0.008
-0.011
0.031999999999999994
0.031000000000000003
0.007999999999999997
0.04900000000000001
-0.03699999999999999
0.0010000000000000009
-0.011
-0.028000000000000004
0.013000000000000001
0.022000000000000013
0.002
0.004000000000000001
0.015000000000000001
0.003999999999999995
-0.024
-0.009000000000000001
0.0030000000000000035
0.0050000000000000044
-0.017
-0.041999999999999996
-0.037000000000000005
-0.031999999999999994
0.017
-0.022999999999999993
0.022
-0.024
