-0.004
-0.016
0.014000000000000005
-0.014000000000000005
-0.023000000000000003
0.005000000000000008
0.046
0.04200000000000002
0.04300000000000003
-0.03999999999999998
-0.005000000000000006
0.015
0.027000000000000003
-0.006000000000000007
0.036
0.02
-0.053000000000000005
-0.0010000000000000018
0.03600000000000002
0.03499999999999999
0.014000000000000005
0.008999999999999998
0.007999999999999986
-0.04399999999999996
-0.008000000000000005
0.018000000000000002
0.012999999999999987
-0.016
-0.02600000000000001
-0.017999999999999988
0.05999999999999994
-0.07
0.021000000000000005
0.025000000000000015
-0.018
0.005999999999999993
0.03399999999999999
0.03299999999999999
0.029000000000000033
-0.03400000000000001
-0.06599999999999998
-0.062000000000000006
0.0010000000000000078
-0.028999999999999995
-0.00499999999999999
0.006000000000000002
-0.02199999999999998
-0.015000000000000024
-0.005000000000000005
0.023999999999999973
-0.023999999999999952
-0.00800000000000001
-0.005000000000000001
0.007000000000000001
0.041999999999999996
0.02300000000000002
0.02400000000000002
-0.018000000000000002
-0.099
-0.14700000000000005
-0.051999999999999984
0.05299999999999999
0.014999999999999993
-0.054000000000000006
-0.04399999999999998
0.026000000000000016
0.001
-0.027
0.009000000000000005
0.07600000000000004
-9.999999999999966E-4
0.025999999999999985
-0.12000000000000002
0.015999999999999986
0.01400000000000001
0.064
0.038000000000000006
0.06699999999999999
0.04699999999999999
-0.03799999999999999
-0.066
0.044999999999999984
0.05299999999999993
0.003000000000000012
-0.002000000000000007
-0.07199999999999998
0.05199999999999999
-0.004999999999999997
-0.028000000000000018
0.03600000000000004
0.03900000000000001
0.011000000000000015
0.0010000000000000009
-0.03500000000000001
0.020000000000000014
0.03199999999999999
-0.07100000000000001
-0.064
-0.009999999999999985
0.04399999999999999
-0.04999999999999998
-0.04299999999999998
0.006000000000000007
0.048
0.027000000000000003
0.019000000000000013
-0.01699999999999999
0.049000000000000016
0.06899999999999996
0.05200000000000004
-0.020999999999999994
0.037
0.003000000000000001
-0.048999999999999995
-0.01999999999999998
-0.05199999999999999
-0.010999999999999989
-0.047000000000000014
0.0010000000000000044
-0.06600000000000006
-0.03599999999999998
-0.02499999999999998
0.06600000000000002
0.05499999999999995
-0.040999999999999995
-0.08700000000000005
0.03300000000000001
0.022999999999999996
-0.030999999999999986
-0.019
-0.02800000000000001
0.007999999999999997
0.06999999999999999
0.029000000000000012
0.003000000000000002
-0.016999999999999998
0.011
0.04199999999999999
-0.016
0.061999999999999986
-0.013999999999999995
-0.061999999999999986
-0.06499999999999996
0.017
-0.001
0.007
0.04300000000000002
-0.011000000000000003
0.02199999999999998
0.04
-0.043
0.0
-0.067
0.03799999999999999
-0.002000000000000007
0.005999999999999997
0.011999999999999993
-0.026000000000000006
-0.017999999999999995
-0.05399999999999999
-0.060999999999999964
0.03600000000000001
-0.007
-0.04999999999999996
-0.022
-0.016999999999999987
-0.017999999999999988
-0.03500000000000003
-0.04000000000000001
