0.014000000000000005
-0.04599999999999996
-0.20500000000000002
0.022999999999999993
-0.008000000000000018
-0.03700000000000002
0.08599999999999972
0.03799999999999995
-0.037000000000000026
0.16900000000000004
0.14800000000000013
-0.015000000000000027
-0.008000000000000004
0.09199999999999982
-0.12499999999999996
0.03599999999999998
-0.1660000000000001
0.03200000000000001
-0.007999999999999957
0.06999999999999995
0.061000000000000006
0.19499999999999998
0.05399999999999992
-0.03900000000000005
-0.068
-0.053000000000000026
0.09199999999999978
-0.075
0.13700000000000012
0.12100000000000007
0.07099999999999995
-0.09800000000000011
-0.02399999999999989
0.017999999999999995
0.037000000000000026
0.1459999999999999
0.058000000000000024
0.137
-0.087
-0.16099999999999995
-0.18700000000000006
-0.12400000000000005
-0.0989999999999999
-0.01499999999999999
0.020999999999999998
-0.07799999999999985
-0.05700000000000006
-0.013000000000000005
-0.03799999999999994
0.10299999999999992
-0.07600000000000008
0.07300000000000004
-0.02000000000000006
-0.03700000000000007
0.023000000000000003
0.042999999999999955
0.06400000000000003
-6.245004513516506E-17
0.11100000000000004
-0.17099999999999993
-0.255
