0.003
-0.017
0.014
-0.033
-0.028
0.01800000000000001
-0.01
0.04900000000000001
0.051000000000000024
0.028
-0.009999999999999995
-0.016000000000000004
-0.005999999999999998
0.0030000000000000035
-0.019
0.004999999999999995
-0.026000000000000006
0.006999999999999994
0.004000000000000002
-0.024
-0.030000000000000002
-0.015000000000000003
-0.011000000000000006
0.014999999999999982
-0.0029999999999999966
0.011
0.020999999999999998
-0.033999999999999996
-0.003000000000000002
0.019999999999999997
0.007999999999999997
-0.029
-0.014000000000000005
0.006000000000000001
0.011999999999999997
-0.008000000000000002
0.04999999999999999
-0.012000000000000007
0.008000000000000009
-0.020000000000000004
-0.026000000000000002
0.009000000000000001
-0.004000000000000001
-0.009999999999999993
0.027999999999999997
-0.028999999999999995
0.012
0.002999999999999999
-0.003999999999999997
-0.024
-0.025999999999999995
0.0010000000000000018
0.011000000000000006
-0.018999999999999996
0.036
0.009999999999999998
-0.001
-0.02699999999999998
-0.03400000000000002
-0.09300000000000003
-0.064
-0.007000000000000001
0.012999999999999996
-0.0010000000000000026
-0.009000000000000008
-0.007000000000000001
0.0
0.027999999999999997
0.03
0.060999999999999985
0.004
0.05800000000000002
-0.012
0.04500000000000002
0.049999999999999975
0.004000000000000001
-9.999999999999992E-4
0.011000000000000001
0.031000000000000003
-0.015000000000000003
0.005
0.009000000000000001
0.0029999999999999957
0.008999999999999977
-0.001999999999999995
-0.060999999999999985
0.018999999999999996
-0.011
-0.004
0.006000000000000008
0.022000000000000002
0.027000000000000007
-0.018
0.012
0.010999999999999998
0.011000000000000001
-0.061000000000000006
-0.03799999999999999
0.015000000000000006
0.033
-0.036
-0.02
0.005999999999999998
-0.01
-0.004
-0.017
-0.012
0.036000000000000004
0.009000000000000001
0.04200000000000001
-0.006
0.01899999999999999
0.026000000000000006
-0.007000000000000009
0.026999999999999996
-0.022
0.009999999999999998
0.02300000000000001
-0.006
-0.021999999999999995
-0.009000000000000001
0.012
0.018000000000000006
-0.002000000000000001
-0.022000000000000006
-0.059999999999999984
-0.022000000000000013
0.036000000000000004
-0.023000000000000017
-0.022000000000000002
-0.016999999999999998
-0.014000000000000002
-0.011
-0.034
0.015
0.044000000000000004
1.734723475976807E-18
0.01700000000000001
0.05799999999999999
0.031
-0.007
-0.037
-0.015999999999999993
-0.011000000000000003
-0.027000000000000003
0.005
0.031000000000000007
0.009999999999999997
0.018999999999999996
-0.03799999999999998
-0.03900000000000001
-0.018999999999999993
-0.053
-0.001
-0.006000000000000002
0.012
0.008
-0.005
0.022000000000000006
-0.016000000000000007
-0.020000000000000004
-0.008000000000000007
-0.006999999999999998
-0.035
-0.046000000000000006
-0.021
0.032
-0.012
-0.015
