0.0
-0.013000000000000003
-0.015000000000000001
-0.035
-0.016000000000000004
-0.019
0.022
0.011
0.019
0.037000000000000005
-0.004
-0.049
-0.049000000000000016
-0.02699999999999999
-0.023
0.008999999999999998
-0.006000000000000009
0.009000000000000001
-0.0020000000000000018
0.007000000000000007
0.014000000000000014
-0.022999999999999996
0.03500000000000001
0.003000000000000002
0.0
0.010999999999999996
0.013000000000000005
-0.011
0.02
0.027999999999999987
0.029000000000000005
-0.025
-0.010000000000000005
-0.028
-0.015
-0.030999999999999993
0.013000000000000001
0.004999999999999992
-0.02400000000000001
-0.0070000000000000045
0.014
0.030000000000000002
0.005000000000000003
-0.064
0.012999999999999998
-0.024999999999999998
0.0019999999999999983
9.999999999999922E-4
-0.016000000000000014
0.013999999999999999
-0.03400000000000001
0.026000000000000002
0.046
-0.005
0.004999999999999999
0.027000000000000007
0.007999999999999998
-0.026000000000000002
-0.017
-0.05799999999999998
-0.036000000000000004
-0.010000000000000005
-0.011000000000000001
0.004000000000000005
0.013000000000000001
0.037000000000000005
0.013000000000000001
-0.009999999999999998
0.022
0.022000000000000006
0.004999999999999998
-0.010999999999999996
0.008000000000000004
0.05699999999999998
0.005999999999999995
-0.018
0.051000000000000004
0.02300000000000001
9.999999999999992E-4
0.0
-0.015
-0.039
0.044999999999999984
0.001
-0.019999999999999997
-0.063
0.03999999999999998
-0.022
-0.01999999999999999
0.01899999999999999
0.04099999999999998
0.02600000000000001
0.0
0.017
0.016999999999999994
0.025999999999999992
-0.046999999999999986
-0.05599999999999997
0.013
0.030999999999999996
-0.030999999999999993
0.005
0.014000000000000012
0.015000000000000006
0.02800000000000001
-0.019
-0.013999999999999988
0.030999999999999993
0.03
0.03199999999999999
-0.007999999999999997
-0.018999999999999996
0.009000000000000003
-0.002
0.045
0.03400000000000001
0.001999999999999999
8.673617379884035E-19
0.001999999999999999
-0.040999999999999995
0.005999999999999999
0.0
-0.023000000000000003
0.03700000000000001
-0.04599999999999999
-0.011
-0.03199999999999999
0.013999999999999999
0.009999999999999995
-0.017
0.003000000000000002
-0.049000000000000016
-0.042
-0.026000000000000002
9.999999999999957E-4
0.002999999999999999
0.006999999999999998
0.03599999999999999
0.029
-0.024
0.02
-0.010000000000000004
-0.007
0.0019999999999999974
-0.024000000000000004
-0.009000000000000001
0.0
-0.017
-0.005999999999999996
-0.06299999999999999
-0.017000000000000005
0.05199999999999998
-0.032
-0.012
-0.032999999999999995
-0.015000000000000001
0.009
-0.017
0.015000000000000001
-0.0030000000000000053
-0.002000000000000001
-0.023
0.016999999999999998
0.016
-0.006
-0.017
9.999999999999983E-4
-0.020000000000000014
-0.049999999999999996
