0.001
-0.005000000000000001
-0.026000000000000006
-0.017
-0.022
0.009000000000000003
0.012000000000000002
-0.027999999999999997
-0.031000000000000007
-0.009000000000000001
0.012999999999999998
0.011000000000000003
0.002
0.004999999999999999
0.005000000000000003
0.007000000000000001
-0.004999999999999999
-0.008
0.022000000000000002
0.030000000000000002
0.016999999999999994
0.019999999999999993
0.002000000000000001
-0.001
0.012999999999999998
0.013000000000000001
-0.003999999999999999
-0.024
-0.029000000000000005
-0.020000000000000007
-0.013000000000000001
-0.032999999999999995
0.022
0.016000000000000004
-0.002000000000000001
0.020999999999999998
-0.009000000000000001
0.005000000000000001
0.010000000000000002
-8.673617379884035E-19
-0.017
-0.026
-0.001
0.02
-0.004
0.020000000000000004
0.012000000000000004
-0.018
-0.049999999999999996
-0.04800000000000001
0.002000000000000001
-0.007000000000000003
0.011999999999999999
-0.017
0.028
-0.001
-0.024000000000000004
-0.028999999999999998
0.019000000000000003
-0.006999999999999998
0.003000000000000001
0.02
0.004999999999999997
0.022000000000000006
-0.0030000000000000027
0.007000000000000001
-0.024999999999999998
-0.035
0.020000000000000004
0.012000000000000004
0.020000000000000004
-0.005000000000000002
-0.0069999999999999975
-0.007
0.035
0.014999999999999996
-0.010999999999999996
-0.011999999999999997
0.010000000000000002
0.030000000000000002
-0.035
-0.028
-0.003
-0.011999999999999995
-0.008
0.008000000000000002
-0.015000000000000001
0.023000000000000003
-0.004
-8.673617379884035E-19
0.016
0.003999999999999998
-0.017
-0.019
0.003000000000000002
0.010000000000000002
0.008
0.0049999999999999975
-0.023000000000000007
0.007000000000000001
-0.002999999999999999
-0.019000000000000006
0.004999999999999997
-0.010999999999999998
-0.002999999999999999
0.005000000000000001
0.009999999999999997
-0.026000000000000002
0.0019999999999999974
-0.009999999999999998
0.0019999999999999983
0.0
-0.013000000000000001
0.048
0.014000000000000002
0.03400000000000001
0.028
-0.015
0.017
-0.0020000000000000035
-0.014000000000000002
-0.02
0.03200000000000001
0.019000000000000003
0.029
-9.999999999999992E-4
-0.0039999999999999975
-0.023
-0.013000000000000001
-0.006999999999999993
0.007000000000000001
-0.018000000000000002
8.673617379884035E-19
0.007999999999999998
0.033
-0.003
-0.010000000000000002
-0.012000000000000002
0.001
-0.015999999999999997
-0.014000000000000002
