0.004
-0.022999999999999993
0.006000000000000001
0.006
-0.03900000000000001
0.012
-0.01599999999999999
0.022999999999999986
0.0040000000000000036
0.026999999999999986
0.018
0.0019999999999999905
-0.016
-0.019999999999999997
-0.048
0.017999999999999995
-0.008000000000000002
-9.999999999999992E-4
-0.004999999999999996
0.010000000000000002
0.013000000000000008
-0.010999999999999996
0.03300000000000001
0.035
0.007000000000000001
0.005
0.0030000000000000053
-0.008000000000000002
0.025000000000000005
0.02099999999999999
0.020000000000000004
0.016000000000000007
-0.04599999999999999
-0.067
0.018000000000000002
-0.035999999999999956
-3.469446951953614E-18
0.015999999999999993
0.021999999999999992
-0.004
-0.043999999999999984
-0.026000000000000002
-0.004999999999999999
-0.03399999999999999
0.025
-0.049
0.028000000000000004
0.015999999999999997
-0.0040000000000000105
-0.01100000000000002
-0.04
0.005999999999999997
-0.004000000000000005
-0.024000000000000007
0.02
0.0010000000000000044
0.004
-0.03499999999999996
-0.053
-0.11600000000000003
-0.10900000000000004
-0.009
0.028999999999999998
-0.03699999999999997
-0.002000000000000001
-0.006999999999999995
-0.027999999999999997
-0.039999999999999994
0.009000000000000001
0.05099999999999998
0.032
0.03699999999999998
-0.07999999999999999
0.05100000000000002
0.031000000000000017
0.034999999999999996
0.03700000000000001
0.023000000000000003
0.022999999999999996
-0.012
-0.003999999999999999
-0.06799999999999999
0.04799999999999999
-0.016999999999999994
-0.037
-0.04600000000000001
0.05699999999999998
-0.03200000000000001
-0.026000000000000002
0.013000000000000001
0.015000000000000003
-0.0020000000000000018
-0.04799999999999998
0.004999999999999994
0.04300000000000002
0.05999999999999999
-0.086
-0.05999999999999998
-0.03499999999999999
0.0010000000000000035
-0.039999999999999966
-0.069
0.020000000000000004
-0.02
0.027000000000000003
-0.004000000000000004
-0.034
0.01100000000000001
0.06899999999999999
0.10100000000000002
0.021
-0.019000000000000003
0.010000000000000002
-0.014000000000000007
0.01100000000000001
-0.037999999999999985
-0.009000000000000003
0.005000000000000001
0.04100000000000002
-0.05700000000000003
0.03899999999999999
-0.05100000000000002
0.009000000000000005
0.067
-0.017999999999999995
-0.02299999999999999
0.022000000000000002
0.09400000000000003
0.015
0.014999999999999998
0.0029999999999999975
-0.016
-0.015999999999999993
-0.026999999999999986
-0.007999999999999983
0.05299999999999998
0.07899999999999999
0.048000000000000036
0.014999999999999998
0.04199999999999999
0.017
-0.017000000000000008
-0.03699999999999999
-0.0020000000000000026
-0.013
0.025000000000000005
0.010000000000000002
0.04300000000000001
-0.004
-0.001
-0.010000000000000002
0.013999999999999988
-0.05699999999999998
0.006999999999999993
0.002
-8.673617379884035E-19
0.016
-0.023000000000000003
-0.011000000000000001
-0.037000000000000005
0.049
0.023999999999999997
-0.01699999999999999
-0.047
-0.04599999999999999
-0.005999999999999996
0.02600000000000001
-0.028
-0.022000000000000013
