0.013000000000000005
-0.03999999999999998
-0.006999999999999998
-0.032000000000000056
-0.03900000000000002
0.013000000000000001
-0.038000000000000006
-0.012999999999999998
0.09400000000000003
-0.011999999999999995
-0.032
-0.039999999999999966
0.023000000000000007
-0.05599999999999999
0.05500000000000001
0.04200000000000001
-0.04699999999999999
0.011000000000000003
0.035000000000000024
0.034
-0.062000000000000034
-0.03199999999999998
0.004999999999999983
0.039000000000000014
-0.014000000000000007
-0.04399999999999999
0.005999999999999989
0.002000000000000014
0.0029999999999999905
0.030000000000000013
0.05999999999999997
-0.10800000000000001
-0.012999999999999996
0.059
0.01399999999999999
-0.03299999999999998
0.05200000000000007
0.02499999999999998
0.005000000000000002
-0.008000000000000007
-0.058000000000000024
-0.06799999999999998
0.03999999999999998
0.029999999999999975
-0.004000000000000002
-0.11700000000000002
0.052999999999999985
-0.047999999999999994
-0.04700000000000001
0.005000000000000004
-0.06299999999999997
0.10200000000000004
0.03399999999999999
-0.024000000000000014
0.10800000000000005
-0.0049999999999999776
0.03100000000000005
0.03200000000000001
-0.12700000000000006
-0.14700000000000005
-0.089
0.016999999999999953
0.054
-0.03699999999999998
0.04500000000000002
-0.043999999999999956
-0.04599999999999997
-0.05399999999999996
0.008000000000000007
0.045999999999999965
0.022000000000000006
0.024999999999999994
-0.07399999999999997
0.02200000000000004
0.07600000000000007
0.021000000000000026
0.015999999999999973
-0.034000000000000016
0.002
0.004000000000000013
-0.08799999999999994
-0.040999999999999995
0.05299999999999995
0.017
-0.027999999999999962
-0.06100000000000001
0.087
-0.08300000000000002
-0.01600000000000002
0.05399999999999996
0.066
0.06300000000000001
-0.05899999999999998
-0.053999999999999944
0.067
0.07300000000000009
-0.01899999999999991
-0.07399999999999991
-0.035999999999999976
0.057999999999999996
-0.15200000000000005
0.025000000000000015
0.10100000000000008
0.060000000000000026
0.06600000000000002
0.017
-0.034999999999999906
-0.019000000000000003
0.10200000000000004
0.09500000000000008
0.014999999999999989
-0.052
2.688821387764051E-17
-0.04699999999999998
0.0050000000000000044
0.035999999999999976
-0.032999999999999995
0.044
-0.03699999999999998
-0.07200000000000001
-0.07799999999999996
-0.004999999999999997
0.011999999999999997
0.012999999999999984
-0.07099999999999994
-0.068
0.04600000000000001
0.037000000000000074
9.999999999999879E-4
-0.043999999999999956
-0.04199999999999999
0.027
0.017999999999999995
-0.007999999999999997
-0.0070000000000000045
-0.011999999999999993
0.042000000000000016
0.009
0.033000000000000015
0.055000000000000014
-0.034999999999999976
0.023999999999999994
-0.09199999999999994
0.006999999999999994
-0.018000000000000002
0.044
0.02400000000000002
-9.999999999999983E-4
0.010999999999999989
-0.024999999999999994
-0.061000000000000006
0.0010000000000000044
-0.11700000000000003
-9.999999999999966E-4
0.018999999999999996
0.049999999999999975
0.07200000000000004
-0.049999999999999996
-0.05000000000000004
-0.07499999999999998
-0.027000000000000017
0.08900000000000008
-0.013999999999999992
-0.053000000000000005
-0.04599999999999997
-0.06699999999999993
0.05899999999999998
-0.03600000000000001
-0.08200000000000002
