0.02000000000000001
-0.02199999999999995
-0.13599999999999993
0.0020000000000000365
0.10300000000000015
-9.999999999999775E-4
0.04399999999999998
-0.003999999999999993
-0.204
-0.06499999999999997
-0.10699999999999986
-0.067
-0.05900000000000003
0.14300000000000007
-0.024999999999999988
-0.10899999999999976
-0.0020000000000000052
0.001999999999999982
-0.023000000000000007
-0.020000000000000018
-1.734723475976807E-17
0.07099999999999998
0.15100000000000008
-0.06400000000000003
-0.13200000000000003
-0.009000000000000036
-0.040000000000000056
-0.05600000000000006
-0.11400000000000002
0.10900000000000018
0.05799999999999996
0.2320000000000001
0.185
0.015000000000000046
0.05500000000000004
-0.057
-0.029999999999999978
0.01400000000000002
-0.09200000000000005
0.12399999999999994
-0.13699999999999993
0.02100000000000001
0.15200000000000002
-0.040000000000000036
-0.11599999999999978
-0.06999999999999999
0.03199999999999997
0.19700000000000006
-0.04000000000000009
-0.008999999999999973
-0.22999999999999993
-0.17800000000000002
-0.012999999999999994
0.018999999999999996
-0.08199999999999993
-0.013000000000000024
0.06899999999999999
0.012999999999999966
0.14300000000000015
0.017
0.16500000000000004
0.03000000000000002
0.09900000000000005
0.047999999999999966
0.11599999999999996
0.0029999999999999836
0.022999999999999986
-0.23700000000000004
-0.029999999999999964
0.07599999999999991
-0.1710000000000001
